6111 16
... -0.068417 0.067452 0.154109 -0.137117 -0.244907 -0.072025 0.382845 -0.075202 -0.132382 0.340648 -0.020761 -0.246050 -0.237942 0.475481 -0.070754 0.043373
the 0.365348 0.621020 0.062390 -0.374354 -0.510317 -0.181834 0.238216 -0.176589 -0.647621 -0.251254 0.013302 0.000050 0.042278 0.288849 -0.560739 0.323096
The -0.190305 0.669953 -0.066264 -0.291228 -0.225688 -0.167445 0.657468 -0.314475 -0.180163 0.452832 0.327050 -0.302341 -0.355133 1.190381 -0.033759 -0.134384
from -0.164067 0.470988 -0.402876 -0.762470 0.054107 0.466705 -0.035832 -0.739824 -0.930142 1.141530 0.208671 -0.394432 -0.076266 0.910396 -0.397572 -0.188586
and 0.250181 0.349921 -0.148478 -0.273756 -0.540954 -0.185163 0.232601 -0.303595 0.088318 0.220912 0.200817 -0.082484 0.414783 0.070916 -0.506800 0.201247
- -0.496799 0.336434 0.326374 0.091828 0.274441 -0.267186 0.191288 -0.116371 0.209667 1.237248 -0.552729 0.079044 -0.511128 0.740298 -0.080021 -0.126081
latest -0.219716 1.233828 -0.204718 -0.454774 -0.082247 0.555580 0.553348 -0.186299 -0.502343 0.955039 -0.191564 -0.220258 -0.010249 0.618647 -0.114444 -0.507892
Tweets -0.127619 0.396515 -0.115124 -0.985739 -0.600642 0.514997 0.478390 -0.290340 -0.262093 1.111886 -0.046118 0.165531 -0.425942 1.008796 -0.583428 -0.562051
of 0.067336 -0.064234 0.529281 0.025585 -0.513046 0.047276 0.033521 -0.446483 -0.328486 0.274319 0.090073 0.151956 0.315152 -0.001548 -0.706927 0.121742
to 0.581728 -0.013215 0.181382 -0.037094 -0.422433 0.092182 0.126828 -0.221619 -0.260297 0.126756 -0.072757 -0.208672 0.516696 -0.341096 0.068303 0.035615
for 0.262733 0.325382 0.220537 -0.222120 -0.555296 0.018747 0.108833 -0.371882 -0.048714 0.235968 0.199841 -0.065885 0.381330 -0.321828 -0.380371 0.140114
a 0.220851 -0.491216 -0.240673 0.139629 -0.459726 -0.053176 0.301215 -0.275347 -0.481912 0.074421 0.377756 -0.122590 0.141437 0.089264 -0.497906 0.208696
2016 -0.917168 0.415648 0.662674 0.425262 0.744832 0.148683 0.772389 -0.212893 0.468876 0.613177 -0.003640 -0.426691 -0.745570 0.139717 0.093705 -0.332464
in 0.022692 0.003672 0.234950 -0.155164 -0.532127 -0.236816 0.141812 -0.466215 -0.183600 0.357104 -0.193985 -0.392394 0.319436 -0.174331 -0.324482 0.105363
is 0.110737 -0.321188 0.353974 -0.024858 -0.184756 -0.071925 0.261248 -0.304249 -0.305169 0.182008 0.183927 -0.153295 0.442179 -0.049193 -0.338560 0.089609
on 0.189098 0.196749 0.017503 -0.279017 -0.303334 -0.247568 0.030286 -0.290182 0.191358 0.168604 0.259522 -0.201834 0.354634 -0.120661 -0.419359 0.290613
& 0.253162 -0.083168 0.025329 0.038293 -0.341854 0.088744 -0.234351 -0.257381 -0.108697 0.000353 -0.245236 -0.027556 0.352169 0.378055 -0.583980 0.250254
0 1.436114 0.036187 -0.409504 0.303490 1.375864 -0.515889 -0.340346 0.773722 0.406704 0.934547 0.686276 0.534689 0.298014 0.024271 0.405246 0.005549
2015 -0.327338 0.043657 0.689499 -0.288716 0.368059 0.038440 0.519256 -0.002949 0.908965 1.030468 -0.149582 -0.357996 -0.250021 0.361395 0.269309 0.371557
at 0.054642 0.239160 -0.040826 -0.247223 -0.182785 0.191180 0.190485 -0.362206 -0.118490 0.428989 0.182148 -0.186430 0.327562 0.206103 -0.285556 -0.105218
.... -0.091081 -0.348709 -0.055422 -0.047421 -0.115440 -0.347546 0.146719 -0.304774 -0.202802 0.129838 0.264059 -0.032847 0.051326 0.089537 -0.232590 0.050354
Mar -0.357337 0.290260 0.283861 0.345665 0.203688 0.090976 0.070641 -0.046429 0.365840 0.890290 -0.454593 -0.254616 -0.335001 0.490463 0.012266 0.281434
• 1.883758 0.892335 0.893763 0.236907 1.041884 0.557240 0.428946 -1.340784 -0.357880 -0.582350 0.606214 -0.752470 -1.077922 0.162306 1.149207 0.523645
Joined -0.271374 0.723347 -0.321519 0.491557 0.447973 -0.102890 0.312602 -1.119732 0.745696 -0.150913 -0.100566 0.323365 -0.403987 -0.546283 -1.433829 -0.570018
Retweets 0.071387 -0.791165 0.050944 -0.533708 -0.283825 -0.077037 -0.344926 -0.312271 0.050425 0.476205 0.249929 -0.862725 -0.141154 0.193886 0.583074 -0.019155
Dec -0.165333 0.110431 0.183649 -0.003616 0.060050 -0.101925 0.289403 0.203816 1.063811 1.299933 -0.128415 -0.405720 -0.264786 0.139052 0.302717 0.152390
account. -0.173889 0.657560 0.227441 -0.188475 -0.475545 0.605796 -0.972453 -0.661093 0.138244 0.592247 0.580218 0.000743 -0.098925 -0.546122 0.144428 0.461993
retweets 1.159457 -0.095341 0.000877 0.238827 1.062491 -0.309611 -0.187075 1.096782 0.846008 1.196796 0.444091 0.695614 0.225548 0.200914 -0.097160 0.051129
you 0.559671 0.007019 -0.096830 0.159874 -0.700879 -0.213900 0.393320 -0.378040 -0.577569 0.498077 0.056498 -0.100147 0.138071 -0.808419 -0.281936 -0.255472
account -0.351503 0.423647 0.811444 0.610042 0.169731 -0.093748 -0.778555 0.430881 0.038331 0.482915 0.543120 -0.061458 0.204079 -0.099532 0.115387 0.424347
with 0.474336 -0.029310 -0.013758 0.108243 -0.566595 -0.061960 0.075808 -0.008202 -0.280333 0.362239 0.197421 -0.060239 0.219251 -0.026266 -0.558535 0.200031
Twitter -0.875511 0.852332 0.686313 0.464511 -0.039137 0.442581 -1.488672 0.134192 -0.000846 0.400140 0.810861 0.069886 -0.155890 -0.253835 -0.720089 -0.131108
Likes 0.355313 -1.110832 -0.444586 -0.924022 -0.642534 0.247895 -0.337899 -0.480474 0.338471 0.728485 0.496358 -0.898440 -0.896563 0.517103 0.750638 -0.165223
Feb -0.139676 0.231624 0.420513 0.372622 0.030612 -0.020450 -0.088032 -0.186247 0.469678 0.705695 -0.290917 -0.198314 0.207966 0.369679 0.153345 0.115904
de 0.026872 0.002112 0.350850 -0.065670 -0.076083 0.159021 -0.546436 -0.930015 0.375350 0.022653 -0.816254 0.342769 0.229251 0.712445 0.211579 -1.408292
Jan -0.111062 -0.373397 0.129403 0.166331 0.185550 0.153434 -0.092014 -0.012892 0.349197 0.739427 -0.054416 0.102228 0.220703 0.604690 0.202084 0.608492
I 0.509259 0.011768 -0.158326 0.253612 -0.224204 -0.224935 0.425923 -0.040385 -0.486640 0.314411 -0.049714 -0.245849 0.370299 -0.138478 -0.079169 0.080050
likes. 0.888635 0.154709 -0.290626 0.348395 1.510698 -0.319900 0.014991 0.844682 0.144177 1.234126 0.591345 0.502694 -0.046696 0.521102 0.255992 0.007095
by 0.251608 -0.318650 -0.259702 0.132462 -0.307955 -0.093194 -0.035256 -0.136929 -0.499755 0.375822 0.297668 -0.118656 0.090235 0.093086 -0.409508 0.356740
Sony -0.697746 0.490669 0.541413 -0.028663 -0.153543 -0.499807 -0.063645 -0.387011 0.415397 -0.033406 0.839209 0.038858 0.379789 0.190799 -0.453565 -0.081780
are 0.450680 0.091234 0.041144 0.320152 0.451021 -0.105982 0.455906 -0.437648 -0.435597 0.186053 -0.179359 -0.853125 0.739037 -0.193268 -0.389891 0.281532
your 0.480886 0.195571 -0.088354 0.324798 -0.689785 -0.112434 0.135835 -0.207395 -0.322087 0.598939 0.184470 -0.093121 0.337738 -0.416573 -0.177993 -0.043690
| -0.016617 -0.337175 -0.314099 0.196159 0.455858 0.610797 -0.260524 -0.323214 0.314735 0.170993 0.104532 0.305811 0.473074 0.738821 -0.483236 0.109235
© -0.392625 0.280838 -1.001939 1.794151 0.919177 -0.033673 0.168047 -1.735873 0.620992 -0.178209 0.092678 0.272274 -1.554700 -0.865044 -0.787207 -0.697997
Reply. 0.660870 0.035718 -0.194489 0.135959 1.103127 -0.571072 -0.058460 1.358147 0.263712 1.209516 0.554335 0.963999 -0.052205 0.555297 0.410031 -0.434832
out 1.262514 0.613469 0.806023 -0.368803 -0.271395 -0.338936 0.632680 -0.380960 -1.641995 -0.424563 -0.026356 0.472270 -0.624947 0.232011 0.197665 0.564364
2015. -0.148921 -0.235254 0.352331 0.201815 0.513209 -0.341721 -0.094549 -0.180247 0.547760 0.598422 -0.040328 -0.092388 -0.330339 0.283427 -0.095618 -0.220794
Official -0.844761 0.692826 0.798111 -0.162760 -0.125996 0.060305 -1.205142 0.037102 0.159614 0.373518 0.442411 -0.070176 0.153431 0.157991 -0.682814 -0.147669
my 0.307343 -0.020694 -0.262576 0.121101 0.155360 0.089666 0.367405 -0.294728 -0.408533 -0.048374 -0.078377 -0.618257 0.364416 0.074871 -0.153102 0.187778
tweets 1.096869 1.004516 0.905983 0.303522 0.662796 -0.249357 0.637245 -0.534554 0.331623 -0.285687 0.383632 -0.833147 -0.398860 0.231072 0.460554 0.029442
followers. 1.607246 0.546730 1.036415 0.336397 0.685893 -0.417779 0.825089 -0.813444 -1.000896 -0.730164 -0.498131 0.239561 -1.322257 0.128298 0.447893 0.915680
photos/videos 2.337222 1.324392 1.636810 -0.029772 1.267220 1.172374 0.768175 -1.555415 -0.117722 -0.752040 -0.101975 -0.701389 -0.860869 0.666859 1.012237 0.575604
About -0.206406 0.535063 -0.842829 1.946901 0.046262 0.410462 -0.272339 -0.644339 0.340131 0.340176 0.111184 -0.094877 -2.349254 -0.660431 -0.223375 -0.503168
Twitter; -0.251475 0.057917 -0.456200 2.321905 0.628228 0.262681 0.525373 -0.996703 0.430500 0.080249 0.772092 0.160582 -2.113935 -0.283000 -0.454063 -0.564344
Bank -0.924635 0.359058 0.369641 0.078396 0.260273 -0.031947 -0.817629 0.311027 -0.427257 0.031953 0.745987 0.273998 0.320291 0.613396 -0.476298 0.268417
news -0.131742 0.792191 -0.113702 -0.457224 -0.363120 -0.240712 0.395883 -0.049738 0.152641 0.396328 0.685815 0.160191 0.125534 -0.082476 -0.176871 0.672826
1 0.710925 -0.137158 -0.293004 0.262659 0.634278 -0.093482 -0.029429 0.661145 0.192114 1.019485 1.069529 0.569721 0.309299 0.309735 0.382400 -0.333081
official -0.890993 0.758085 0.957842 -0.021940 -0.496936 0.314858 -0.943950 0.165401 -0.601521 0.626116 0.537639 0.104662 -0.152339 -0.668073 -0.239252 -0.644527
Help -0.256007 0.591922 -0.084127 1.582764 0.032529 -0.270079 -0.423914 -0.733468 0.015083 0.278044 0.562124 0.467068 -2.167064 -0.397766 0.377100 -0.451451
that 0.577374 -0.157867 -0.068275 0.199581 -0.443447 -0.280993 0.172160 0.013961 -0.655574 0.353983 0.235745 -0.351320 0.344371 -0.448542 -0.172810 -0.042433
Lizard -0.790197 -0.698154 0.222305 -0.601991 0.341326 -0.553400 1.226659 0.074267 -0.542660 0.129606 0.847492 0.469703 0.531310 0.196221 0.001238 -0.175336
Follow -0.330102 0.876001 -0.313471 0.302799 -0.858870 -0.338768 -0.114713 -0.198362 0.127810 -0.046568 -0.084829 -0.259445 1.010787 0.213210 0.491705 0.028695
be 0.691655 -0.500710 0.232567 0.310586 -0.595554 0.165874 0.362051 -0.055852 -0.356643 0.182968 -0.000898 -0.264632 0.075928 -0.044188 -0.070406 -0.063826
our 0.418132 0.035837 0.199813 0.167340 -0.630936 -0.054087 0.119002 -0.096135 -0.524717 -0.097362 0.451121 -0.115164 0.006740 -0.087497 -0.131922 0.252754
New 0.129353 0.258228 -0.028195 -0.014517 -0.290193 0.307403 0.311445 -0.645842 0.071357 0.856163 -0.030720 -0.243268 0.476770 -0.616545 -0.043949 0.396388
us 0.597892 1.183453 0.107991 -0.071445 -0.892834 -0.697928 -0.026162 -0.135657 0.026878 -0.063768 0.336122 0.453573 1.107207 -0.836225 0.334658 -0.425073
Terms -0.367908 0.401830 -0.236131 2.014852 -0.509565 0.018983 0.228055 0.241555 -0.120277 0.340392 0.816554 0.581873 -2.556975 -0.124973 0.421317 -0.313714
Check 2.237722 1.567410 0.313134 -0.326720 0.620377 -0.315425 0.344041 -1.145581 -1.266031 -0.541671 -0.090592 0.504253 -1.448765 0.279211 -0.462292 0.807811
… 0.077552 -0.018349 0.353481 0.275395 0.528015 0.231792 0.245684 0.236077 0.325638 0.791346 0.106763 0.383627 0.173925 0.160952 0.064697 0.014489
it 0.510816 -0.491684 -0.013172 0.367717 -0.515128 -0.202582 1.010022 -0.357599 -0.545364 0.335333 0.208593 -0.136159 0.111227 -0.585814 0.069346 0.074968
News -0.386219 0.211902 0.118476 -0.031049 0.209604 -0.123279 -0.306630 -0.146986 0.413815 0.342200 0.327776 0.261770 0.127331 0.227647 0.326107 0.138532
We 0.268198 0.090724 0.188045 0.021584 -0.391048 -0.124138 0.131229 -0.001869 -0.360048 0.195291 0.242558 -0.062040 0.466555 0.047499 -0.040421 -0.073698
an 0.449337 -0.338564 0.102371 0.325472 -0.426321 0.277864 0.028528 -0.094261 -0.255954 0.211746 0.066491 -0.218781 0.114536 0.201335 -0.239723 0.153718
Nov -0.234243 -0.185466 0.085140 0.202248 -0.040503 -0.167296 0.220831 0.025098 0.805963 0.890982 -0.014210 -0.322958 -0.217919 0.255336 0.240644 0.211258
Verified -0.517520 0.546098 0.126478 0.812791 0.162667 -0.072876 -0.723476 -0.179600 0.203476 0.517156 0.461311 0.227288 0.428114 0.521359 0.572408 0.590975
all 0.384225 0.456053 -0.014243 0.171131 -0.154092 -0.162842 -0.277896 0.059156 -0.402295 0.227729 0.385202 -0.111519 0.205541 -0.496891 -0.381042 -0.038778
or 0.329646 -0.841897 -0.576620 -0.104700 -0.472219 -0.984677 0.822977 -0.351540 0.230031 0.319600 0.490033 -0.681250 0.367229 0.013905 -0.664488 -0.672466
not 0.223431 -0.190548 0.189896 0.288527 -0.255919 -0.054179 0.431984 -0.102282 -0.215675 -0.144815 0.118768 -0.271959 0.221618 -0.209000 0.007909 -0.162915
have 0.684983 -0.232249 0.056121 0.295552 -0.342672 -0.405737 0.241509 -0.100399 -0.570782 0.405375 0.192673 -0.266948 0.329208 -0.176448 -0.112976 -0.286199
this 0.366628 -0.363554 0.084928 0.161176 -0.419244 -0.371903 0.400753 -0.342865 -0.268022 -0.035944 0.158461 -0.103201 0.350335 0.250943 -0.165839 0.155403
Squad -1.082667 -0.787827 0.640350 -0.603861 0.259660 -0.904949 1.374756 -0.286157 -0.534532 -0.105757 0.992148 0.401023 0.832278 0.069485 0.497840 -0.495844
Retweeted. 0.440677 -0.261781 0.113047 0.540675 0.491027 0.023779 -0.227068 0.531680 0.296688 0.988610 0.588799 0.858791 0.323460 0.394181 0.170112 0.058295
about 0.224823 0.037541 0.214853 0.152568 -0.203479 -0.255984 0.007553 -0.296279 -0.170682 0.334665 0.278952 -0.232625 0.320013 -0.059689 -0.096306 0.122543
Retweet. 0.581412 -0.220815 -0.033757 0.496719 1.657770 -0.540427 -0.165628 1.015877 0.258068 1.001901 0.623961 1.483120 0.178439 0.273693 0.154393 0.015045
Privacy -0.886865 -0.212258 -0.269333 1.658035 -0.403648 -0.369686 -0.363678 -0.086230 -0.499559 0.508286 0.569300 0.433344 -2.576318 -0.464245 1.049811 0.174614
Tweet. 0.168991 -0.710399 0.396339 0.646062 -0.439232 1.392360 0.472704 0.438911 0.664477 0.854409 0.168783 0.607649 0.412072 0.266307 1.037541 -0.531657
Embed 0.455921 -0.568652 -0.297154 0.535059 -0.578165 1.724715 0.332019 0.726058 0.592772 1.002775 -0.077551 0.120925 0.322490 0.016178 1.131999 -0.090484
FBI -0.259483 0.234262 0.181125 0.216225 -0.749705 0.453218 -0.021638 -0.274494 -0.571635 0.593843 0.247980 -0.541653 0.213507 -0.239300 -0.064231 -0.440181
will 0.558607 -0.114340 0.109768 0.276716 -0.299121 -0.354607 0.157245 -0.133665 -0.379915 0.273869 -0.054345 -0.171642 0.388793 -0.273139 0.086711 -0.024910
2014 -0.384476 -0.174743 0.437122 0.271462 0.584184 0.072203 0.429186 -0.311792 0.939929 0.416430 0.139747 -0.135666 0.188826 0.556840 0.034965 0.150788
more 0.793122 0.297880 -0.532747 0.237799 -0.605087 -0.592035 0.654545 -0.407068 0.054483 0.698574 -0.277111 0.262583 0.835609 -1.097528 0.036032 0.104814
University -0.386907 0.617699 0.222121 0.065695 -0.060564 0.601550 -0.635583 -0.155972 -0.730600 -0.018019 0.580522 0.067346 0.110487 0.684508 -0.686684 0.411506
new 0.449127 0.066530 0.221217 -0.029625 -0.606217 0.154657 -0.026749 -0.038142 -0.366866 0.337181 0.376976 -0.382984 0.140970 -0.114361 -0.295055 0.270918
can 1.109122 0.033593 -0.587855 0.569010 -0.573540 -0.530386 -0.024426 -0.065372 -0.544894 0.429245 0.545290 -0.017520 0.336949 -1.545514 0.009559 -0.210759
A 0.173298 0.105024 0.252024 -0.007871 -0.099639 0.256734 0.284562 -0.038566 -0.103256 0.645860 -0.146359 -0.191343 -0.093548 0.760702 -0.575440 0.460204
as 0.502459 -0.313936 0.541654 0.097614 -0.799110 -0.134099 0.283653 -0.347189 -0.400934 0.034720 0.346268 -0.185099 0.248816 -0.171844 -0.569912 -0.044262
2 0.526329 -0.060403 -0.290785 -0.113866 0.330540 -0.325314 -0.160957 0.400131 0.005513 0.485582 0.516741 0.031627 0.119608 0.474109 -0.068091 0.064014
2009. -0.818868 0.764965 -0.684836 0.844982 0.193175 -0.112231 0.109486 -1.315442 0.545338 0.059786 -0.026360 -0.166125 -1.127866 -0.632340 -1.260170 -0.761305
service 0.139818 -0.072778 0.345062 0.011190 -0.280701 -0.417360 0.065609 0.079203 -0.114300 0.106091 0.454835 -0.300691 0.326442 0.091797 -0.565156 0.144627
has 0.416314 -0.630799 -0.174929 0.102268 -0.076756 -0.238345 0.150503 -0.282229 -0.330906 0.385255 0.094900 -0.026970 0.220238 0.292531 -0.453808 0.316683
@ 0.044118 0.141386 -0.146048 0.079221 -0.153501 -0.082794 -0.037704 -0.514580 0.420095 0.349431 0.162534 -0.659386 0.145523 0.077758 0.195086 -0.249523
Cookies -1.171686 0.175629 0.216569 2.133279 -0.847597 0.098973 0.009956 0.790370 -0.214481 0.477173 0.675320 1.144884 -2.329650 -0.672510 1.038534 -0.114719
we 0.362517 -0.243724 0.092766 0.149528 -0.499531 -0.065087 0.391932 -0.386868 -0.340478 0.162548 -0.187176 -0.198086 0.110664 -0.235540 -0.217616 -0.052943
updates -0.327982 0.825094 0.075462 -0.304850 -0.517709 -0.240746 -0.248463 -0.074147 0.990059 0.001861 0.680135 -0.034003 -0.503814 -0.827054 -1.116862 0.722001
For 0.794410 1.019994 -0.057513 -0.134062 -0.177393 -0.845322 0.099990 -0.191129 -0.505872 0.258282 0.352888 0.461655 0.681391 -1.181015 -0.041985 -0.655328
en 0.540346 -0.377833 0.297081 -0.259262 0.153905 0.035270 -0.715365 -1.504088 0.631301 -0.519682 -0.607426 0.411418 0.119649 0.258731 0.187561 -1.564166
Unmute -0.175400 0.868797 -0.399538 0.062729 -0.340430 0.346775 0.336325 -0.638583 0.425029 0.230783 0.371032 -0.300541 0.718396 -0.468374 1.316109 -0.025555
up 0.600409 -0.128590 -0.113315 0.215650 -0.451707 0.071003 0.088538 -0.145360 -0.339464 -0.123976 0.000224 -0.450337 0.444215 -0.151757 -0.057593 0.230330
Dos 0.525876 0.195577 -0.541333 -0.113588 0.472227 1.111647 -0.464251 -0.421363 0.088235 0.138355 0.145808 0.171176 -0.096412 1.795589 -0.028640 0.114808
AM -0.227962 0.151516 0.294554 0.030140 0.452723 -0.075046 0.579393 0.138835 0.809299 0.843069 0.002465 -0.586475 -0.070266 0.373178 0.372322 -0.010896
Retweeted -0.276453 -0.295226 0.034618 0.235364 0.200085 -0.087067 -0.464263 -0.297460 -0.066233 0.480647 0.364654 -0.015222 0.372367 0.701777 0.182684 0.164520
Rutgers -0.476941 1.084313 0.159998 -0.174998 -0.183997 0.517128 -0.523313 -0.060067 -0.867564 0.219137 0.750133 -0.159356 0.060212 0.376173 -0.809035 -0.650906
Google 0.253039 -0.153864 0.147083 0.451227 0.144467 -0.024364 0.346416 0.104719 0.273066 0.190474 0.095194 0.071274 -0.053805 0.031396 0.137140 0.458077
Following -1.162355 0.483696 -0.290964 0.613488 -1.080809 -0.530380 0.085716 0.207633 0.220919 0.508719 -1.188567 -0.160863 1.364432 -0.032062 2.117757 -0.018340
2013 -0.613085 0.018225 0.023120 0.318881 0.745786 0.081602 0.357873 -0.043659 0.674194 1.028504 -0.172431 -0.601185 -0.082238 0.806364 0.365177 0.233715
dos 0.328212 -0.128248 -0.431918 -0.449002 -0.087886 0.023845 -0.300605 -0.773340 0.316560 -0.248128 -0.208237 0.467480 0.228355 1.067733 -0.045847 -0.736310
news, -0.149810 1.617414 -0.218475 -1.167477 -0.374970 -0.116610 0.043889 -1.075318 0.031515 -0.014807 0.517442 -0.126933 0.161585 -0.266916 -0.349443 0.977485
its 0.603005 -0.218612 0.204546 0.385795 -0.585974 -0.102947 0.010933 -0.064197 -0.414780 -0.116406 0.064073 -0.484811 0.193619 -0.192256 -0.481716 -0.011072
la 0.383118 -0.221921 0.139721 0.072249 0.008616 -0.048778 -0.357339 -0.844508 0.841193 -0.380431 -0.907197 0.313125 0.392163 0.403184 0.301725 -1.520477
Unfollow -1.124258 0.165930 -0.892341 0.589110 -1.520687 -0.395747 0.286968 -0.050528 0.388187 0.019884 -1.157414 -0.432236 1.618821 0.313039 2.078848 0.719174
BBC -0.022239 0.490448 -0.108021 0.018639 -0.054135 0.346522 -0.212831 -0.202850 -0.074810 0.447444 0.031738 0.197821 -0.271328 0.051893 -0.022755 0.244484
Ads -0.945823 -0.315974 -0.320139 1.619687 -0.770897 -0.109334 0.204574 0.151379 0.004760 0.487258 0.737424 1.712257 -2.446024 -0.391389 0.764051 0.609424
PM -0.161123 -0.148917 0.651669 0.132165 0.766838 -0.197431 0.535636 0.037211 0.924962 0.798530 -0.153647 -0.504265 0.111450 0.375165 0.433618 0.424360
3 0.578999 -0.350522 -0.032456 0.015673 0.245044 -0.277871 -0.039810 0.346334 0.314965 0.522892 0.482262 -0.206878 0.311803 0.054969 0.401830 -0.003591
what 0.490889 -0.092790 0.054468 0.610707 -0.172402 -0.093997 0.733911 -0.406123 -0.294623 -0.035061 -0.300311 -0.529050 0.768301 -0.524324 -0.334167 0.142371
one 0.279996 0.331079 0.611402 0.419572 0.104998 -0.359112 -0.262926 -0.311228 -0.866447 -0.003293 0.117652 -0.381407 0.311007 -0.244389 -0.781350 0.553621
Blocked -1.239439 0.257525 -0.367182 0.886931 -1.602961 -0.930425 -0.087342 0.239946 0.333202 -0.272299 -1.279978 0.172509 1.383655 0.601746 1.904398 0.557245
4 0.328453 -0.071929 -0.061660 0.266606 0.714760 -0.428970 -0.312245 0.344009 0.387858 0.509993 0.285132 0.401536 0.310633 0.302110 0.220042 0.067346
me 0.520670 -0.321354 -0.277321 0.250564 -0.364114 0.041491 0.115720 -0.344481 -0.315563 0.168908 0.089559 -0.255644 0.302650 -0.349569 0.103077 0.013142
no 0.727709 -0.370861 0.111810 0.345427 -0.111498 -0.034478 -0.259505 -0.354906 0.017155 -0.100500 -0.043036 -0.512695 0.438032 0.072085 -0.173570 -0.574334
just 0.491176 -0.573510 0.060217 -0.061659 -0.294214 -0.585288 0.223466 -0.101976 -0.172575 0.107212 0.361947 -0.431994 0.586694 -0.166936 -0.601152 -0.104523
Service 0.074835 0.167457 -0.287604 -0.020357 -0.044303 0.394930 -0.061922 -0.185993 -0.454384 -0.216970 0.390086 0.026972 0.076364 0.796513 -0.550831 -0.359531
do 0.584341 -0.161705 0.032429 0.306767 -0.389611 -0.233993 0.196777 -0.034923 -0.003241 0.221517 -0.063009 -0.146144 0.303954 -0.289724 -0.050029 -0.281664
Unblock -1.589309 0.030632 -0.591978 0.798943 -0.929990 -0.849997 -0.187552 0.615561 0.800496 0.071628 -1.265988 -0.183821 1.758899 0.471830 1.426807 0.750974
followed -0.637614 -0.110613 0.112401 0.090162 -0.003993 0.348674 -0.029523 -0.035028 0.239203 0.515992 0.249513 0.319225 0.553016 0.224387 0.629369 0.159013
link 0.311118 -0.839016 -0.141585 1.150241 -0.030234 2.279526 0.394724 1.071692 0.133744 1.312626 0.107939 0.058114 0.817458 -0.105203 1.041807 -0.511954
info. -1.706634 -0.792174 -0.125014 1.212249 -0.739093 0.004990 -0.027283 -0.004419 0.006272 0.803207 0.702050 1.453950 -1.970958 -0.274488 0.540182 0.573059
so 0.930850 -0.002987 -0.983570 0.789520 -0.735185 -0.620629 0.525274 0.042778 -0.349308 0.934396 0.336998 -0.034088 0.615871 -1.251391 0.180833 0.017179
now 0.606578 -0.290178 -0.010831 0.442335 -0.005077 -0.136869 0.101994 0.028249 -0.358593 0.046077 0.122383 -0.368787 0.332206 -0.012011 -0.410803 0.015504
May -0.308766 -0.141195 -0.134048 0.611408 0.600736 -0.129845 0.183097 -0.836527 0.945052 0.596740 0.350590 0.007534 -0.694064 0.084572 -0.815867 -0.399900
Pending -1.060511 0.215628 -0.372717 0.715697 -0.843333 -0.748235 0.099751 0.346201 0.191713 0.128516 -1.421991 0.304094 1.223483 0.537020 1.524162 1.305042
via 0.568930 -0.143503 0.141502 -0.006868 0.265643 -0.196077 0.146734 -0.129163 -0.156544 0.355263 0.353139 -0.200285 -0.066535 0.208234 0.058414 -0.278800
like 0.664900 -0.534298 -0.084522 0.206559 -0.307839 -0.120976 0.084840 -0.364406 -0.336529 0.242379 -0.107020 -0.343170 0.153700 -0.180204 -0.041132 -0.082527
people 0.452259 -0.178753 0.009470 0.190682 -0.138902 0.043449 0.739250 -0.109242 -0.590211 0.167924 0.020231 -0.499226 0.662014 -0.567063 -0.314726 0.408092
2014. -0.248077 0.131632 0.012145 0.342126 0.636560 -0.342656 0.286727 -0.301762 0.428757 0.360141 -0.076243 0.311284 -0.398281 0.126179 -0.237176 -0.208970
was 0.627213 -0.404168 0.105105 0.207620 -0.069852 -0.377642 0.068549 -0.120997 -0.647073 0.203467 0.133204 -0.391807 0.024467 -0.225596 -0.281119 0.172453
over 0.588440 0.337894 -0.216687 0.024605 -0.907489 -0.745818 0.533382 -0.017944 -0.022212 0.951624 0.145006 0.344430 0.884643 -0.890158 -0.139972 -0.255254
Cancel. -0.753225 0.353106 -0.390785 1.023497 -0.780675 -1.254354 -0.178374 0.516935 0.681201 -0.044785 -1.330394 0.524976 0.998795 0.892833 1.345631 0.932704
5 0.536531 -0.086320 -0.040409 0.473564 0.441679 -0.267898 -0.122724 0.302390 0.437059 0.554422 0.153166 0.121705 -0.037884 0.161019 0.549881 0.062244
This -0.118639 -0.072359 0.185880 0.560348 0.261810 0.083514 -0.173796 0.093601 -0.190842 0.046442 0.714925 -0.177464 0.150503 0.336639 0.051750 0.338133
February -0.524135 0.523649 -0.892294 0.596607 0.836450 -0.432821 -0.064719 -0.957902 0.729211 0.209128 0.191778 0.379678 -1.163765 -0.136174 -1.319002 -0.124299
January 0.045078 0.529124 -1.001494 0.469593 0.401367 -0.290102 0.132405 -1.051138 0.844795 0.288691 0.057613 0.046485 -1.077880 -0.570634 -1.122820 -0.133651
get 0.635895 -0.112303 0.389300 0.363229 -0.553065 -0.060300 0.214468 -0.173645 -0.565257 0.049546 0.076119 -0.475390 0.204460 -0.242794 -0.117761 0.113799
y 0.341656 -0.078891 0.002920 -0.129747 0.097161 -0.333118 -0.838660 -0.771147 0.739978 -0.261591 -0.318131 0.046070 0.493590 0.643066 0.297684 -1.045285
Aug -0.363005 -0.246788 0.283116 0.329915 0.420128 -0.034124 -0.134725 -0.016167 0.832546 1.411643 -0.132590 -0.174508 0.186562 0.186174 0.043878 0.251424
but 0.581979 -0.643269 0.102359 0.280506 -0.456388 -0.278254 0.069282 -0.153765 -0.127078 0.083777 0.179843 -0.226034 0.418091 -0.300751 0.008481 -0.075147
who 0.335379 0.032642 0.093724 0.067377 -0.268624 -0.287075 0.026033 -0.059651 -0.438411 0.261564 0.176695 -0.131313 0.398688 -0.176923 -0.363880 0.266572
If 0.206064 -0.468720 0.466682 0.146725 -0.424871 -0.425141 0.277526 0.102507 -0.590668 0.262949 0.784445 0.210050 0.673697 -0.483655 -0.026585 -0.639557
View 1.001732 0.138435 0.065973 -0.283170 1.242119 0.575956 0.131093 -0.295567 0.037127 0.447481 0.552716 0.857788 0.670073 0.046740 0.638180 0.417465
Copy 0.477495 -1.189014 -0.176928 1.303959 -0.256090 1.774122 0.400228 1.199448 0.363963 1.222661 -0.045066 0.312033 0.588560 0.380360 1.472312 0.226887
Tweet; 1.198533 -1.126212 -0.238664 1.588452 -0.426340 2.392407 0.820826 1.130521 0.395418 1.410464 0.186784 0.669745 0.422190 0.339814 1.303764 -0.257396
Mute -0.744212 1.146498 -0.809192 0.525245 -0.432130 -0.923064 -0.365956 -0.735799 0.281447 0.283170 0.205678 -0.566131 1.368563 0.013295 2.425132 0.055254
See 0.383938 0.855849 -0.344937 -0.163010 0.192987 -1.140470 0.077511 -0.551696 -0.712578 0.399129 0.292940 -0.087174 0.538243 -1.554259 0.080807 -0.561280
like. 0.874323 -0.291635 -0.587676 0.419734 1.508277 0.128482 -0.318499 1.050985 0.119637 0.945273 1.088087 0.913324 0.175343 0.217329 0.500546 -0.037717
/ 0.012980 -0.263655 0.174841 0.176505 -0.350914 0.103339 0.179271 -0.296106 0.111455 0.180751 0.383846 0.407287 -0.225798 0.296070 -0.433997 -0.273677
Welcome -0.055710 0.318270 1.063558 0.031443 -0.905353 1.048419 -0.592293 0.275889 -0.569232 0.590755 0.518106 -0.635919 -0.186189 -0.066623 0.261211 -0.016751
Police -0.648870 -0.172928 0.759431 0.741884 -0.021868 0.536681 0.160518 -0.617909 1.105524 0.533003 0.180055 0.509556 0.499810 0.109707 0.156804 0.592207
April -0.088922 -0.317359 -0.600161 0.683577 0.848122 0.259731 -0.447715 -1.230671 0.640546 -0.133412 0.365994 0.603335 -0.548114 0.198895 -1.193140 -0.370459
Microsoft -0.292414 0.617186 0.311845 -0.024510 -0.246505 0.134921 -0.117552 0.141620 -0.097292 -0.174900 0.633140 -0.081167 0.161503 -0.149861 -0.119688 0.089256
Security 0.078455 0.220323 0.000090 -0.031460 -0.272174 0.645372 0.016340 -0.068348 -0.275011 -0.077147 0.451738 0.033640 0.279487 0.740479 -0.746192 0.046790
You 0.241054 -0.573803 -0.037450 0.270357 -0.540866 0.451052 0.112573 0.036123 -0.124988 0.692826 0.823095 0.156118 0.342920 -0.610469 0.063754 -0.731822
24, -0.194583 -0.021225 0.867514 0.532810 0.376614 0.003531 0.184648 0.017131 0.695397 0.923801 -0.502785 -0.507192 -0.542548 0.599601 0.318675 0.370696
American -0.196948 0.042255 -0.312944 -0.105275 -0.393368 0.098239 0.046923 -0.029760 -0.317447 0.062230 0.215328 -0.069343 0.027114 0.328038 -0.185060 0.291609
IBM -0.952699 0.109116 -0.368668 0.049201 -0.004012 1.196952 -0.308645 -0.379799 -0.117536 -0.197989 0.779142 -0.060243 -0.068781 -0.392879 -0.758501 -0.263449
2013. -0.113366 -0.214430 -0.091819 0.411102 1.037748 -0.399520 0.032747 -0.345533 0.632472 0.392028 0.061998 0.122842 -0.518330 0.227785 -0.371266 -0.512949
Were 0.009050 -0.264607 0.200831 -0.038715 -0.327626 0.360904 -0.217959 0.058965 0.140733 0.365881 0.540833 -0.099483 -0.020278 -0.034201 -0.236739 0.098243
how 0.748160 -0.208582 0.291483 0.171545 -0.573356 -0.048353 0.213440 -0.027393 -0.419970 0.122048 0.207949 -0.336746 0.274157 -0.386262 -0.126145 0.224588
30, -0.406505 0.660532 0.769683 0.412791 0.829521 -0.008007 0.420517 -0.332268 0.346630 1.035091 -0.561163 -0.475971 -0.449730 0.979702 0.153786 0.394484
23, -0.085314 0.381051 0.929899 0.242997 0.446483 -0.164323 0.146294 -0.113244 0.513068 0.961411 -0.687707 -0.590572 -0.290937 0.637392 0.103451 0.103844
..... 0.080565 -0.433209 0.143644 -0.094889 -0.080933 0.051943 0.029863 -0.083266 -0.114786 0.135233 0.200408 -0.101772 0.359149 0.121647 -0.219224 0.223099
Fargo -0.554712 0.488556 -0.015824 -0.206404 0.110285 -0.102878 -0.378849 0.266377 0.162647 0.609301 0.045690 -0.123565 0.507450 0.267917 -0.188503 0.978835
DDoS -0.160183 -0.420033 -0.189370 0.103757 -0.331464 -0.416602 0.194283 -0.091872 -0.063919 0.183349 0.204311 -0.358467 -0.150949 0.435336 0.021691 0.057463
National -0.013723 0.322908 0.221032 -0.167242 -0.250487 1.089463 -0.232071 -0.380266 -0.649902 -0.019451 0.621678 0.394574 0.854610 0.297646 -0.774059 0.352220
Top -0.459098 0.614433 -0.109953 -0.534377 -0.004600 0.787071 -0.385724 -0.945305 0.865483 0.235831 0.423082 -0.058105 -0.718796 -0.636778 0.489099 1.521553
they 0.501638 -0.589972 -0.123955 0.147058 -0.403949 -0.345578 0.230095 -0.339835 -0.185548 0.138856 0.044465 -0.289185 0.377841 -0.211026 0.171326 0.162785
March -0.359209 0.565449 -0.763905 -0.052640 0.486710 -0.359805 0.135561 -1.046625 0.745207 -0.016348 0.121135 -0.010791 -0.797687 -0.130619 -0.932870 -0.590018
2012. -0.286915 -0.092353 -0.429450 0.849189 0.935443 -0.109969 0.219657 -0.918205 0.682182 0.162764 0.126996 0.043320 -0.947528 -0.365091 -0.726772 -0.751965
Sep -0.104099 -0.191014 -0.034174 0.451779 0.551200 -0.260690 0.145200 -0.210681 0.896178 1.115017 0.065568 -0.023834 0.112791 0.239405 0.288356 0.172061
7 0.556705 -0.265441 0.209869 -0.193894 0.389308 -0.008129 -0.056668 -0.346383 0.866984 0.811296 -0.034469 0.340528 -0.052979 0.185814 0.598569 0.473766
Justice -0.110204 -0.022631 0.147447 0.050946 -0.009525 0.041248 0.016379 -0.219003 -0.223197 -0.052146 0.201644 -0.262003 0.418672 0.536189 -0.509227 0.052673
Im 0.332478 -0.273290 -0.124214 -0.028572 -0.460325 -0.329030 0.042925 -0.075431 -0.379976 0.345144 0.069148 -0.201028 0.377458 -0.033258 -0.164088 0.101882
2010. -0.953818 0.173489 -0.503855 0.617442 0.393639 -0.347921 0.085713 -1.307881 0.673367 -0.071352 0.222713 0.334488 -1.096151 -0.221068 -1.417458 -1.079601
29, -0.322484 0.508970 0.487996 0.594108 0.710518 0.174491 0.342713 -0.368610 0.262679 0.726843 -0.527305 -0.420145 -0.231211 0.921763 -0.083613 0.353300
i 0.390772 -0.337111 -0.130731 0.405511 -0.402943 -0.252957 0.387486 -0.314459 -0.250212 0.357969 -0.173031 -0.042908 0.337693 -0.113811 0.010403 -0.011117
MasterCard 0.032660 0.369780 0.214790 0.098235 -0.314742 0.230597 -0.409833 -0.354231 0.042614 0.302766 0.439600 0.498155 0.051817 -0.085298 0.373555 0.339457
Dismiss. -1.786763 -0.747448 -0.518936 1.088453 -0.894244 -0.135333 -0.130053 0.122490 -0.255340 0.347431 0.593745 1.769649 -1.602165 -0.567922 1.075031 0.986939
their 0.632644 -0.472221 0.064125 0.391791 -0.217655 -0.254972 0.135959 -0.134640 -0.438524 0.263906 0.353447 -0.421088 0.263465 0.214242 -0.185511 0.246954
network 0.169524 -0.081146 0.416819 -0.204751 -0.295843 -0.221785 0.278427 -0.107171 -0.118149 0.154388 0.394830 -0.090835 0.418263 0.022227 -0.365197 0.089070
Hide 1.261804 0.058787 -0.620118 -0.305267 1.673648 0.415086 -0.216195 -0.134011 -0.007350 0.726928 0.507419 1.055370 0.773170 -0.448378 0.864585 -0.074863
global -0.265420 0.080512 0.735558 -0.240533 -0.889736 -0.344752 0.071415 -0.418005 -1.025123 0.287793 -0.072598 -0.207703 0.510346 -0.073552 -0.514746 0.359162
down -0.209915 -0.733560 0.212256 -0.173160 -0.380712 -0.419834 1.147062 -0.472101 -0.539389 -0.025948 0.396158 0.608609 0.475481 0.030811 0.175813 0.088695
Alliance 0.002577 0.229822 0.179391 -0.064995 -0.146957 0.315125 0.153331 -0.008471 -0.558640 0.126292 0.044556 0.065094 -0.037966 0.592125 -0.320186 -0.190284
Networks -0.151829 0.390073 0.114525 -0.305752 -0.082022 0.319610 0.598192 0.012702 -0.606421 0.217262 0.201179 -0.109776 0.378927 0.684710 -0.404592 -0.219425
videos -0.492596 1.382151 -0.523925 -0.413474 0.046908 0.266722 0.316757 -1.024726 0.781149 -0.495718 0.641217 -0.153027 -0.243140 0.074346 -0.552335 0.613299
que 0.509465 -0.197010 0.088295 0.042233 -0.167097 -0.073068 -0.608729 -0.915295 0.513562 -0.171139 -0.616308 -0.206462 0.553373 0.573683 0.272144 -1.410687
Office -0.220932 0.144307 -0.112704 -0.186260 -0.334810 0.249353 -0.062793 -0.120877 -0.526580 -0.027017 0.238668 -0.115682 0.249641 0.519694 -0.496350 -0.339281
World -0.141370 -0.029069 -0.380246 -0.118439 -0.421110 0.228687 -0.597485 -0.037773 -0.785172 0.185581 0.429738 0.020578 0.087756 0.477347 -0.116819 0.078526
8 -0.094492 -0.157240 -0.391857 0.799019 0.505901 -0.053852 -0.125969 -0.034914 0.819105 0.390074 0.331216 0.278091 0.095997 0.500539 0.747117 0.812882
UK -0.270450 0.239426 0.403837 -0.009676 -0.201047 -0.052420 0.224576 -0.273646 -0.389864 0.091818 0.474972 0.096266 0.194693 0.212695 -0.236363 0.194235
been 0.404150 -0.516030 0.315491 0.332543 -0.203859 -0.063524 -0.112861 -0.054306 -0.402080 0.427161 0.156191 -0.233854 0.174314 -0.014944 -0.592883 0.193354
here 0.331305 0.175428 0.191607 0.165241 -0.329266 0.263064 0.081306 -0.000047 -0.235136 0.078227 0.574929 -0.217264 0.403956 -0.313575 -0.014218 0.144587
· 0.157307 -0.345713 0.228502 0.565234 0.887561 -0.696486 0.242215 0.127006 0.796028 1.243443 0.148456 -0.031337 -0.021862 0.621605 0.184716 0.144707
breaking -0.238702 1.992546 -0.189678 -0.567716 -0.408064 -0.975262 -0.578386 -0.960408 0.944169 -0.633924 0.630580 0.008978 -0.180835 -0.969805 -0.233989 1.568170
Institute -0.177114 0.566625 -0.316909 -0.135625 -0.211524 0.697105 0.237721 -0.042429 -0.521814 0.206564 0.448974 0.239419 0.152896 0.463374 -0.707213 0.013831
FIFA -0.200630 0.914972 1.426459 0.660421 -1.225562 0.440129 -0.878351 -0.189063 0.385235 -0.860737 -0.354743 0.370217 0.390016 -0.801569 0.201490 -0.115987
summary 1.177343 0.004306 -0.296844 -0.204761 2.072014 0.775884 0.460079 -0.162562 0.329357 0.467610 0.270061 0.908316 0.790868 -0.526476 0.621358 0.142698
Breaking -0.736828 0.823136 -0.634195 -0.280848 -0.449318 -0.028089 0.296728 -0.871579 1.267127 -0.150211 0.613389 0.468223 -0.082916 -0.696128 0.101779 1.320474
others. -0.319461 0.913829 -0.672934 0.075147 0.327614 -0.120787 0.374122 -0.343342 0.606734 0.550617 0.240519 -0.441630 0.464661 -0.245791 1.385024 0.175026
1; 0.326598 -0.682871 0.022048 -0.473133 -0.690666 0.146831 -0.394689 0.018437 0.310336 1.154451 0.509929 -0.636151 -0.876684 0.256668 1.017329 -0.820882
retweet 0.802984 -0.495345 -0.115929 0.471597 0.876715 -0.311301 -0.144690 0.953719 0.207704 0.949952 0.821971 0.545175 0.617942 0.330637 0.007699 -0.079630
My 0.100414 -0.132838 0.081546 0.227158 0.017551 0.281764 0.165866 -0.057503 -0.194756 0.011669 0.188421 -0.588249 -0.002700 0.073127 0.050483 0.168779
bank 0.796503 0.444132 -0.038631 0.262522 -0.589520 -0.426779 -0.135394 -0.101746 -0.461389 0.466905 0.439181 0.194945 0.543776 -0.744432 -0.126441 -0.203770
Business -0.304001 0.823392 0.035910 0.089427 0.018675 0.104112 -0.081223 -0.242405 0.365316 0.675052 0.445179 -0.090832 0.362712 0.260653 -0.033451 0.444280
28, -0.433160 0.585697 0.719525 0.594306 0.770580 0.044784 0.212341 -0.253807 0.517887 0.984916 -0.237867 -0.269753 -0.355964 0.719574 0.094152 0.245891
way 0.677285 0.355198 -0.612673 0.205078 0.211325 -0.632877 0.248826 0.079385 -0.734888 0.654395 0.094695 -0.523646 0.258399 -1.618265 -0.269965 0.317876
please 0.697089 -0.184253 -0.454421 0.225717 -0.643226 -0.763888 1.156243 -0.479830 0.706930 0.705931 0.416742 -0.572154 0.081605 -0.965385 0.079898 -0.688663
Jun -0.065221 0.046530 0.287667 0.486625 0.196814 -0.207089 0.415535 0.024035 0.722814 1.104752 -0.147193 0.198899 -0.081159 0.396029 0.067712 0.036878
Apple 0.075989 0.164185 0.005902 -0.128513 -0.086030 0.133373 0.248930 0.093998 -0.411661 0.058908 0.383910 -0.180374 0.157478 -0.089841 -0.103359 0.087524
Oct -0.383044 -0.400822 0.129710 0.511024 0.469984 -0.417830 0.113184 -0.029170 0.964992 1.252416 0.195237 0.229458 -0.161940 0.191184 0.187108 0.378222
use 0.169847 0.434176 0.024836 0.553827 -0.810365 -0.430871 0.146663 0.087927 -0.158863 0.458397 -0.258785 -0.192661 -0.049620 -0.464085 -0.305242 -0.138441
Google. -0.751328 0.701359 -0.825049 -0.352253 0.666954 0.143211 0.643772 -0.660729 1.121776 0.268867 0.372748 1.488328 -1.507096 -0.944800 -0.886385 0.369279
10 -0.026070 -0.023241 -0.230727 0.275982 0.186648 0.522912 0.096147 -0.341412 0.793726 0.127024 0.147305 0.242842 0.199632 0.402084 -0.266370 -0.018956
Close. -1.220251 -0.680421 -0.066998 0.697749 -0.516732 -0.173918 0.323033 -0.028238 -0.100472 0.637815 0.128963 1.768130 -1.612629 -0.728726 0.972636 1.199130
Cisco -0.045261 0.771859 0.029511 -0.505445 -0.121400 0.051850 0.421548 0.070749 -0.280673 0.151854 0.377962 -0.034418 -0.267709 0.308179 -0.119115 -0.140792
if 0.627225 -0.229050 -0.012906 0.312156 -0.375807 -0.280074 0.205365 -0.306281 -0.175725 0.372248 0.035644 -0.340440 0.099819 -0.158301 0.350038 0.020652
USA -0.129954 0.733710 0.195885 -0.200846 -0.183428 0.309999 0.076240 0.048841 -0.500873 0.178999 0.315129 0.167210 -0.025761 0.690140 -0.225753 -0.165822
ANC -0.331231 0.098502 -0.251212 -0.528429 -0.249453 0.455191 0.560059 -0.112702 -0.035552 0.490076 0.380658 0.062376 0.362080 0.316599 -0.315102 0.280782
Committee -0.158163 -0.001110 0.109882 -0.347242 -0.412114 0.501327 -0.180599 -0.094441 0.090014 0.077689 0.874568 -0.102457 0.003841 0.207759 -0.490925 0.342148
follow 0.057732 0.385331 -0.103559 -0.019360 -0.329493 -1.012207 0.095565 -0.503742 -0.193263 -0.127598 0.355764 -0.556713 0.349088 -0.676136 0.253945 0.786329
most -0.071089 0.276119 0.130193 0.100222 -0.364934 -0.079872 0.106018 -0.107944 -0.581905 0.211118 -0.055309 -0.011749 0.147239 -0.325333 -0.808662 0.371334
To -0.704827 -0.119689 0.029882 0.466129 -0.720429 -0.569277 0.026570 -0.207624 -0.379975 0.561051 0.336624 -1.007380 0.074300 -0.190907 -0.301934 -1.170343
dont 0.653469 -0.306488 -0.100886 0.428943 -0.243307 -0.288468 0.169327 0.005687 -0.249905 0.168939 0.070808 -0.091349 0.431284 -0.078569 0.048994 -0.195484
Toronto -0.516102 0.071716 0.946165 0.877402 -0.308970 0.963429 0.271352 -0.050533 1.344451 0.323813 0.553073 0.411370 0.016648 0.095507 -0.131763 0.658927
when 0.358553 -0.289624 -0.009583 0.346310 -0.337009 -0.363900 0.318309 -0.257408 -0.403906 0.343137 0.157144 -0.249362 0.184080 -0.192633 -0.086560 0.031281
support 0.196993 0.302511 0.344356 0.052223 -0.552846 0.388017 -0.120292 -0.039679 0.113937 -0.056959 0.460406 -0.376125 0.272099 -0.817139 -0.491563 -0.286798
22, -0.233982 0.153540 0.774053 0.335129 0.743430 -0.077688 0.181740 -0.338484 0.830787 1.118859 -0.407784 -0.491152 -0.444983 0.818546 0.319196 0.383732
whats 1.422638 0.819611 -0.123215 -0.329894 -0.506063 -0.647412 0.769874 -0.169007 -0.930484 0.580415 0.370005 0.361731 0.163296 -1.431921 -0.265587 0.342729
@wikileaks 0.147436 -0.508982 0.845540 0.421316 0.396429 -0.356457 -0.115785 -0.494935 0.699758 0.392488 0.504150 -0.004736 0.404656 -0.448382 0.467192 0.297946
America -0.707653 -0.003205 -0.002699 0.435108 0.194604 -0.536690 -0.309975 -0.319401 -0.023890 -0.125416 0.812869 0.394481 -0.007197 0.478141 -0.357252 0.707373
Facebook 0.126814 0.243795 0.298994 0.106955 -0.188023 -0.034737 -0.216885 0.233903 0.207360 -0.122474 0.172055 -0.245684 0.085090 0.367310 -0.208035 -0.219960
media 0.043992 0.406027 -0.427339 -0.210025 0.015914 -0.347186 0.113597 -0.285345 -0.754586 0.568140 0.680727 -0.373941 -0.078000 -0.038594 -0.102326 0.605960
Network 0.029245 0.395974 -0.056126 0.032237 0.083688 0.356798 0.092555 -0.046236 -0.230923 0.236313 0.434332 -0.067726 0.309627 0.156953 -0.335465 -0.105800
Xperia -0.529094 0.320915 0.464554 -0.146127 -0.627564 0.074475 -0.273964 -0.062656 -0.411881 -0.347858 0.773780 0.196057 0.127875 0.341709 -0.167782 -0.265540
page -0.668058 0.502564 0.522793 0.192968 -0.473959 0.221668 -0.620717 0.176879 -0.401634 0.094861 0.944014 -0.159393 -0.261122 -0.350370 -0.398763 -0.216146
Court -0.299042 0.027872 0.414678 0.398488 -0.272684 -0.581071 -0.168223 -0.029467 -0.391210 0.602746 -0.338386 -0.339210 0.652147 -0.032517 -0.304676 -0.149640
Australia -0.344629 0.508676 -0.090457 -0.173884 -0.304353 0.309915 0.090506 -0.091674 -0.393488 0.257143 0.513308 0.417465 -0.142061 0.460239 -0.221074 0.110917
PNC -0.489223 0.085832 -0.001377 -0.109614 0.187976 -0.244545 -0.292428 -1.199025 0.736185 -0.128179 0.547955 0.166742 -0.739458 -0.175843 -0.474638 -0.844032
attack 0.302294 -0.070404 -0.028849 0.159719 -0.138061 -0.424382 0.313618 -0.209686 -0.103756 0.306632 0.009521 -0.571631 -0.039282 0.052162 -0.944526 0.028200
25, -0.393528 0.529178 0.604426 0.412449 0.631170 -0.283721 0.367254 -0.251895 0.637044 0.984824 -0.339228 -0.502408 -0.550624 0.755984 0.092188 0.175335
Royal -0.821744 0.447988 0.228653 -0.068444 0.120434 0.252536 -0.858610 0.104619 -0.713312 0.200267 0.740581 0.250571 0.044909 0.023519 -0.613211 0.072269
hours 0.033729 -0.237459 0.031940 0.073092 -0.005025 0.087331 -0.318443 -0.286467 -0.434699 0.262174 0.251026 -0.035192 0.309956 0.665786 0.263927 -0.019757
lizard 0.359219 -0.140113 -0.039144 -0.453242 -0.060748 -0.398889 0.812370 0.189384 -0.661460 0.298898 0.434755 -0.139170 0.442236 0.357505 -0.366280 -0.205132
Twitter. -0.710268 0.023414 -0.298879 0.617075 -0.890854 -0.190623 0.187038 -0.521914 -1.071340 0.565521 0.499754 -1.141429 0.365342 -0.833018 -0.939095 -0.782326
Retweet 0.410999 -0.188591 -0.851262 -0.239579 -0.119186 -0.144748 -0.369678 0.126278 -0.014727 0.831083 0.720199 -0.786553 -0.420477 0.292065 1.071894 -0.907964
Supreme -0.141635 -0.045827 0.756252 0.480022 0.148842 -0.484255 -0.067297 -0.065018 -0.454246 0.758283 -0.118868 -0.341090 0.257786 -0.190453 -0.672560 0.020773
EA -0.439301 0.580987 1.191355 0.900475 -1.099249 0.634990 -2.009241 0.094885 0.575317 -0.251620 -0.196538 -0.192116 -0.555995 -1.013328 0.291357 0.251882
17, -0.302714 0.344587 0.665996 0.249078 0.284270 -0.067052 0.366667 -0.234373 0.877163 1.126741 -0.586857 -0.426119 -0.422368 0.687037 0.169662 0.267823
see 0.729057 -0.095778 0.081410 0.392244 -0.415409 -0.042885 0.331812 0.132239 -0.323800 0.310091 0.066868 -0.545151 0.290904 -0.349168 -0.142828 0.030439
PayPal 0.359837 0.352222 -0.077922 -0.381578 -0.204354 0.058797 0.154800 -0.036753 -0.284729 0.170062 0.500512 0.401367 0.039761 0.215815 0.072861 -0.138598
SPORTS -0.598501 1.107072 1.245282 1.187517 -0.686272 0.400500 -2.153706 -0.271335 0.760062 -0.392261 -0.522778 -0.141674 0.224509 -0.698405 0.023800 0.028308
time 0.204489 -0.250237 0.314709 0.313722 -0.740365 -0.148020 0.535611 -0.107295 -0.404765 0.187572 0.275712 -0.359008 0.370407 -0.009104 -0.345790 0.143295
Our 0.438659 -0.211032 -0.016972 0.334498 -0.078675 0.106330 0.020063 -0.272644 0.072436 0.201469 0.339462 -0.374876 0.248166 0.097839 -0.043945 0.028822
Apr -0.048791 -0.108565 0.195780 0.369583 0.649895 0.064659 0.065703 -0.145556 0.677342 1.106080 -0.040376 -0.210090 0.169870 0.443912 0.220657 -0.313230
NATO -0.219832 0.456034 0.621810 -0.123556 0.009670 0.156234 -0.447580 0.247299 -0.157180 -0.022926 0.441635 -0.059838 0.036276 0.465428 -0.459520 0.066422
16, -0.203792 0.335814 0.577413 0.224007 0.467648 -0.115885 0.265194 0.067521 0.856271 1.097290 -0.416557 -0.358784 -0.487439 0.598553 0.296595 0.400097
Cirrus 0.274664 -0.067643 0.132314 0.114923 0.119263 0.480742 -0.136445 -0.033634 0.360424 0.378610 0.181220 -0.094888 -0.068245 0.354694 0.121585 0.213264
Latest -0.581942 0.749029 -0.918613 -1.024278 -0.088599 -0.130113 0.145128 -0.361867 0.939455 0.243439 0.505045 0.164508 1.069945 -0.059578 -0.208492 0.937332
North -0.365261 0.300249 0.184841 -0.072669 -0.161630 0.236250 -0.408666 -0.149958 -0.403324 0.019044 0.009842 -0.031865 0.386922 0.521486 -0.715793 0.269995
6 0.391870 -0.150994 -0.098991 0.315340 0.802912 -0.135187 -0.005150 0.136272 0.209332 0.708312 0.434069 0.015590 0.081872 0.126883 0.392054 0.355817
replies -0.386536 1.332868 -0.379521 -0.800540 0.070384 0.670463 0.961822 -0.122806 -0.403707 0.545838 1.016813 0.342840 -0.134990 0.471029 -0.127643 0.211707
into 0.623155 -0.284766 0.192592 0.091458 -0.466515 0.176876 0.199258 -0.084102 -0.634611 0.121387 0.036658 -0.226178 0.020076 -0.410224 -0.222376 -0.170404
help 0.565953 0.236801 0.014110 0.318969 -0.730241 0.070504 0.389587 0.237477 -0.066943 0.540284 0.055713 -0.454855 0.255228 -0.437231 -0.039689 -0.036892
Syrian 0.089068 -0.206506 0.191849 0.021063 -0.097215 -0.118699 -0.159536 -0.319978 -0.451256 0.452996 0.218105 -0.210535 0.193778 0.196087 -0.335366 0.183484
join -0.172268 0.330723 0.357898 -0.178426 1.011627 -0.037828 1.113736 -0.101784 -0.545032 0.631218 -0.027780 -0.316807 0.862345 -0.829156 -1.070851 0.135336
9, 0.035071 0.179031 0.559168 0.265527 0.563026 -0.255476 0.271993 0.207487 0.897808 1.144595 -0.523460 -0.340780 -0.194283 0.758215 0.261632 0.278821
@google. -1.021382 0.443789 -0.634028 0.409469 -0.198814 0.022104 0.267170 -0.112034 0.691009 0.148336 0.511459 1.562253 -1.033816 -0.491201 0.876600 1.684107
security 0.482237 -0.156829 0.208597 0.091873 -0.439312 0.151391 0.380257 -0.114471 -0.075376 -0.023862 0.285112 -0.334110 0.260224 -0.002861 -0.416461 0.173831
only 0.516786 -0.065721 0.187197 0.266347 -0.221372 -0.128649 0.048574 -0.049933 -0.400412 0.315206 0.240892 -0.263682 0.189329 -0.609409 -0.298277 0.011936
Wells -0.079497 0.623662 0.481242 -0.336175 0.189123 0.064892 -0.373460 0.208696 0.483206 0.587322 0.492939 0.043825 0.298795 0.399144 -0.134795 0.697326
Jul -0.208908 -0.079896 0.118901 0.302724 0.516338 -0.134861 0.092431 -0.081324 1.251524 1.079848 -0.104789 -0.102625 0.020117 0.159829 0.317345 0.167563
Industries -0.333981 0.468772 -0.100967 0.009397 -0.029161 0.354447 0.067343 0.373540 -0.107052 0.387103 0.545674 -0.036324 0.188368 0.576870 -0.125174 -0.094409
make 0.705365 -0.371776 0.232290 0.244125 -0.538191 -0.013823 0.251545 -0.178555 -0.303274 0.218532 0.255831 -0.136548 0.312403 -0.435866 0.043853 0.027625
October -0.604556 -0.089035 -0.554218 0.445202 0.583355 -0.073755 0.401874 -0.893592 0.427798 0.279489 0.044373 0.423331 -0.890730 -0.123124 -0.621260 -0.362787
In -0.513363 -0.245973 0.315098 0.042952 0.151212 -0.305743 0.618213 0.018787 -0.572573 -0.140282 0.808204 0.264798 0.682428 0.088453 0.249831 -0.006885
More. 0.699278 -0.871127 -0.008295 1.218242 0.396128 1.632689 0.491402 0.858241 0.295974 0.910637 -0.137299 0.733807 0.542247 0.243471 0.834168 0.004924
9 0.142871 -0.155320 0.348367 0.596738 0.679698 -0.350166 0.269081 0.115027 0.625517 0.706717 0.054080 0.133644 0.167323 0.371819 0.460091 0.188140
work 0.604578 -0.085228 -0.085732 0.468750 -0.377704 -0.137687 0.081848 0.285650 -0.555029 0.101294 0.089966 -0.203286 0.164908 -0.089305 -0.044263 0.329524
RT 0.045025 -0.082340 0.040571 -0.028202 0.135440 0.055902 0.084906 -0.336856 0.389620 0.178280 0.172014 -0.145548 0.129390 0.137736 -0.016120 0.178175
26, -0.341978 0.241267 0.774773 0.216024 0.751659 -0.187368 0.214841 -0.025875 0.797689 1.070033 -0.220104 -0.075755 -0.292542 0.809827 0.038059 0.191209
were 0.519649 -0.197747 0.249225 0.349437 -0.385835 -0.064787 0.125172 -0.027731 -0.075312 0.275564 0.151801 -0.104051 0.118321 -0.209534 -0.189717 0.170542
11, -0.674343 0.254978 0.626352 0.354412 0.449729 -0.152266 0.156134 -0.226647 0.663211 1.158152 -0.283258 -0.415180 -0.439431 0.651876 0.173849 0.271351
team 0.438684 -0.125429 0.192031 0.403739 -0.077172 0.261760 -0.045796 -0.154871 -0.527958 0.116318 -0.009110 -0.489275 0.373107 -0.092982 -0.360274 0.196380
call 0.001059 -0.614670 0.013685 0.417357 -0.556175 -0.171370 0.458484 0.019612 0.631627 0.268168 0.478554 0.020352 0.307677 -0.109534 -0.191232 0.638629
24 -0.038952 -0.017097 0.537265 0.341835 0.653823 -0.131853 0.008057 -0.097510 0.785109 0.627879 -0.111654 -0.052140 -0.181209 0.412215 0.868100 0.224841
2; -0.061217 -0.942483 -0.309179 -0.977317 -0.646575 -0.342819 -0.520924 -0.554683 0.386004 0.737972 0.667982 -0.958700 -0.807945 0.611018 1.017829 -0.792568
4, -0.641457 0.390591 0.734317 0.361494 0.733401 -0.175250 0.133007 -0.132280 0.621014 1.177474 -0.411626 -0.393393 -0.457328 0.665076 0.061790 0.412738
27, -0.230348 0.412410 0.677422 0.086326 0.873943 -0.137741 0.197001 -0.109999 0.580097 0.961872 -0.555896 -0.454230 -0.343632 0.734316 0.030932 0.211349
15, -0.419701 0.228880 0.558806 0.536643 0.516819 -0.337826 0.188743 0.111182 0.808723 0.865579 -0.396898 -0.418037 -0.419245 0.617735 0.180015 0.189903
than 0.447789 -0.101397 0.140324 0.207887 -0.321610 -0.262433 0.208802 0.184339 0.077440 0.493732 0.072673 -0.060055 0.311422 0.037279 -0.375795 -0.074604
through 0.301037 -0.023601 0.041070 -0.062361 -0.467129 -0.070543 -0.065619 -0.009031 -0.334927 0.327046 0.002920 -0.287429 0.059762 -0.215693 -0.230461 0.257391
18, -0.339867 0.156007 0.658088 0.272201 0.773081 -0.246965 0.318485 -0.081200 0.756046 1.185145 -0.393459 -0.409557 -0.523663 0.719945 0.017512 0.335978
Please -0.041437 0.000003 0.146262 0.045198 -0.772326 0.027050 0.086825 -0.051844 -0.190442 0.382980 0.195946 -0.207073 0.128745 -0.167733 0.166309 -0.081712
best 0.356545 -0.072641 0.100213 0.206187 -0.490559 -0.088421 -0.093309 -0.024929 -0.392161 -0.005881 0.113059 -0.154896 0.212769 -0.240656 -0.401075 0.269447
PS 0.746889 0.364440 0.024061 -1.281293 -0.389948 -0.833435 0.770619 -0.767405 1.539189 -0.000329 1.420741 -0.217144 -0.108499 -0.111402 -1.124070 0.309369
Like. 0.339470 -0.636274 0.200601 0.753241 1.152364 0.064173 0.520303 1.170591 0.042017 1.185677 0.290955 1.752871 0.452024 0.530229 -0.142681 0.205542
PSN -0.414796 -0.942786 0.333928 -0.670014 -0.379250 -0.541565 1.649185 -0.870749 0.384500 0.096674 0.489066 0.421061 0.622027 0.218628 0.065777 0.265882
. -0.052862 0.118514 -0.433007 -0.033451 0.052422 -0.085396 0.110056 -0.292427 0.243666 0.042337 -0.059174 0.302960 -0.107024 -0.025312 0.052861 0.143630
19, -0.308214 0.225099 0.647148 0.331724 0.803644 -0.195848 0.296279 0.082912 0.594744 0.884878 -0.414706 -0.273643 -0.159297 0.911431 0.240087 0.428468
live 0.005175 0.248537 -0.524536 0.246004 -0.731942 -0.809340 0.420018 -0.491039 -0.317520 0.026240 0.555279 -0.496301 0.233632 -0.087282 -0.174753 0.152583
el 0.206151 0.102401 0.231814 -0.264156 0.029723 -0.333951 -0.261468 -0.760757 0.499323 -0.177067 -0.309748 0.241123 0.364601 0.312552 0.504837 -1.204594
10, -0.456083 0.186055 0.734604 0.448894 0.295456 -0.068969 0.175648 -0.040555 0.681670 0.963398 -0.224157 -0.456676 -0.614969 0.535470 0.148653 0.540146
Warner -0.248244 0.259892 -0.210190 -0.404705 0.061418 0.225885 -0.085577 -0.047743 -0.215591 0.293004 0.361992 -0.176209 -0.001630 0.722299 0.017695 -0.275272
Pictures -0.565574 0.354704 0.291294 0.003609 -0.170557 -0.145519 -0.549785 -0.109989 0.115746 -0.183374 0.708510 0.639955 0.610512 0.336946 0.046432 -0.366511
love 0.404393 -0.061501 0.002551 -0.012149 -0.395274 -0.054309 0.286202 0.155756 -0.321907 0.015416 0.025380 -0.197941 0.355892 -0.234004 0.168053 0.256249
working 0.329345 -0.512345 0.216078 0.072600 -0.297002 -0.192102 0.534859 -0.269056 -0.211538 -0.003348 0.237579 -0.412848 0.287094 -0.145872 -0.359076 -0.012507
great 0.331065 0.044456 -0.132781 0.056246 -0.408316 -0.000638 0.280602 -0.040093 -0.153426 0.205439 -0.142811 -0.058623 0.286769 -0.024005 -0.224398 0.094627
PlayStation -0.374454 0.173180 0.541639 -0.197893 -0.191890 -0.192936 -0.090300 -0.464471 -0.067639 0.101761 0.494670 0.060509 0.535882 0.352200 0.062538 0.155919
Nexus 0.058594 -0.318908 -0.214436 0.385519 0.251558 -0.119866 0.298538 0.153538 0.310102 0.406749 -0.051730 0.039911 0.157262 0.025723 0.165287 0.465699
youre 0.369828 0.577533 0.479475 1.096354 -1.522375 -0.412806 -0.107961 -0.353732 0.135661 -0.088258 -0.256840 -0.115156 0.236941 -0.439607 -0.147722 -0.323583
Daily 0.006172 0.239622 0.127185 0.251736 0.368950 0.178570 -0.275523 -0.094592 -0.197454 0.341425 0.315456 -0.025845 -0.013904 0.154589 0.157357 0.465303
14, -0.200142 0.071693 0.630505 0.404307 0.674277 -0.098571 0.158475 0.055429 0.648392 1.132679 -0.369399 -0.100568 -0.256353 0.648687 -0.036392 0.296585
20, -0.440383 0.320035 0.661399 0.259352 0.626172 -0.346254 0.326055 -0.082005 0.790579 0.996184 -0.390989 -0.550869 -0.470386 0.714050 0.085540 0.136585
his 0.476965 -0.135833 0.125604 0.525057 -0.384476 -0.052852 0.108807 0.145074 -0.245332 0.049541 0.226450 -0.321791 0.343372 -0.228412 -0.152353 -0.015301
why 0.874348 -0.467772 0.486762 0.258233 -0.675540 -0.184101 1.138407 -0.495338 -0.397400 0.449330 0.355472 0.362836 -0.232838 -0.853293 0.369527 0.908936
things 0.459702 0.862772 0.140632 0.475239 -0.217349 -0.354216 -0.732105 -0.301677 0.450699 -0.421922 0.656060 -0.061184 -0.364448 -1.018453 -0.216203 0.241509
some 0.673476 -0.017115 -0.061185 0.313312 -0.327198 -0.238274 0.370768 0.003530 -0.414038 0.202803 0.131458 -0.206149 0.445478 -0.097946 -0.199372 -0.005338
1. 0.141213 -0.471686 0.184054 0.793954 0.803788 0.214060 0.332393 0.700456 0.229190 0.905026 0.241269 1.237840 0.456621 0.221454 0.137663 0.032912
services -0.085642 0.151643 0.444845 0.152745 -0.455883 -0.425214 0.285581 -0.315347 -0.270565 -0.239604 0.366546 -0.304938 0.408239 -0.124537 -0.439052 0.254659
APD -0.069796 0.182762 -0.069034 -0.131362 -0.048449 0.106531 0.173232 -0.083394 -0.173732 0.297832 0.160006 -0.187455 -0.010997 1.029977 0.027433 -0.037956
21, -0.432696 0.257298 0.819933 0.332151 0.558363 0.042591 0.332936 -0.210391 0.523803 0.925945 -0.722707 -0.552134 -0.218005 0.843099 -0.020680 0.212049
information -0.124243 0.534086 -0.042368 -0.480509 -0.500835 0.093153 0.189929 0.228048 -0.160471 -0.185324 0.303867 -0.014308 0.136694 -0.430878 -0.266851 0.379963
after 0.614375 -0.541676 0.101540 0.181371 -0.272062 -0.296427 0.058168 -0.321449 -0.165488 0.279702 -0.015590 -0.136576 0.212262 0.049175 -0.116204 -0.012850
tweet 0.658991 1.068100 -0.205549 -0.024199 -0.216192 -0.413326 -0.094207 -0.356623 -0.144354 0.144374 0.447097 0.176721 0.649185 -0.827974 -0.244820 -0.561924
world 0.229008 -0.238655 0.118823 0.090253 -0.575131 0.118441 0.094343 0.087177 -0.590358 0.168812 0.021744 -0.453746 0.466416 -0.344886 -0.573756 0.295904
, 0.462870 -0.165376 -0.364707 -0.528726 -0.370853 -0.299432 0.177870 -0.166690 0.303342 0.218117 0.222564 -0.266611 0.486884 0.178496 -0.069233 0.088017
16 0.367656 -0.126011 0.436012 0.156433 0.149333 -0.198659 -0.085350 0.210647 0.660632 0.388078 -0.039604 0.031154 0.080668 0.306192 0.283439 0.185560
any 0.410790 0.197865 -0.095024 0.813083 -0.597956 -0.635988 -0.015647 -0.009901 -0.218341 0.360733 -0.250502 0.043127 0.217273 -0.306531 -0.437733 -0.071120
8, -0.344144 -0.014058 0.464586 0.302008 0.822124 -0.014612 0.347029 -0.058321 0.940711 1.071310 -0.282895 -0.341942 -0.412961 0.576833 0.009851 0.274203
open 0.539110 -0.634167 0.714752 0.376305 0.115324 -0.743233 -0.141557 -0.332514 0.090728 -0.635457 0.869898 0.231708 0.371537 -0.759249 0.253867 0.460229
US -0.047571 0.030056 0.281925 0.108403 -0.202542 -0.040327 -0.242747 -0.043630 -0.299673 0.329013 0.017584 -0.135153 0.584439 0.140447 -0.285508 0.022640
Downs -0.114050 0.484764 -0.303267 -0.319202 -0.208705 0.430899 0.242590 -0.195943 -0.594613 0.310173 0.358085 0.340965 0.187480 0.934133 -0.331855 -0.114130
ago. -0.022235 -0.236702 0.573513 0.055582 -0.253123 0.243087 -0.423361 -0.318799 -0.705720 0.534960 0.131513 0.074130 -0.203751 0.525965 0.338213 -0.175871
summary. 1.359038 0.295818 -0.425207 -0.126215 2.117931 0.673313 0.339159 0.037729 0.290378 0.759013 0.908973 1.045356 0.736767 -0.179438 0.751219 0.057917
back 0.633836 -0.299998 -0.112154 0.133870 -0.418425 -0.302394 0.547155 -0.204921 -0.467789 0.343061 0.192691 -0.363649 0.329232 -0.252497 -0.074376 0.178036
solutions 0.218972 0.179254 0.256014 0.177946 -0.352315 0.096138 0.056886 0.197692 -0.158342 0.407566 0.459914 -0.366048 0.260806 -0.282661 -0.237336 0.205082
Director 0.037739 0.099890 0.073943 0.016962 -0.060638 0.193196 -0.197770 0.027857 0.036981 0.206271 0.121104 -0.102148 0.095087 0.443036 -0.543196 0.063034
: 0.116500 -0.247869 -0.092513 0.051964 0.192545 0.211247 -0.347850 -0.148209 0.175177 0.051556 0.037086 0.320364 0.352007 0.359357 -0.212589 0.286597
Social -0.441529 0.010026 -0.393252 -0.230055 -0.288888 0.602888 0.188070 -0.513532 0.078968 0.367344 0.010937 -0.319119 0.345702 -0.194612 -0.368456 -0.575115
2016. -0.155953 -0.036243 0.248412 0.438944 0.904282 -0.409181 0.325594 -0.128263 0.393001 0.721177 -0.069578 -0.319357 -0.240168 0.170203 -0.033152 -0.113681
Akamai 0.299015 0.333385 -0.135364 -0.058038 -0.148281 0.419427 0.295753 -0.077515 -0.159421 0.160516 0.061957 -0.322349 0.249705 0.303796 -0.233407 0.220928
may 0.442906 -0.365397 0.263783 -0.092367 -0.369030 0.040829 0.268387 0.069996 -0.308115 0.295255 0.209697 -0.000657 0.082015 -0.332133 0.247782 -0.207433
Previous. -1.424523 -0.597757 -0.363156 0.777225 -0.640468 -0.042169 0.253416 -0.177459 0.114494 0.478957 0.219600 1.272528 -1.375586 -0.655285 0.829459 1.651760
NewsVerified -0.651245 0.988352 0.174565 0.048832 -0.549647 0.198819 -0.764380 -1.093736 0.894913 0.585988 0.890953 0.396404 -0.589758 -0.598379 0.303417 1.068600
Get 0.288295 0.199807 0.117999 -0.040429 -0.159263 0.001963 0.004965 -0.041899 0.017263 0.448209 0.343241 0.031045 0.169131 -0.033494 -0.233846 0.194694
los 0.586008 -0.442131 0.622247 -0.370643 -0.062666 -0.098311 -0.541606 -0.929364 1.386680 -0.259487 -0.685525 0.348862 0.396015 0.563244 0.548357 -0.843865
providing -0.134833 0.148638 0.143130 0.325176 -0.942833 -0.545569 -0.824898 0.222448 -0.076132 -0.046378 0.887668 0.112216 -0.195036 -1.098099 -0.421046 0.245512
By 0.650184 1.404255 0.951309 0.778616 -1.512936 0.566741 -0.373058 -0.253333 0.111035 -0.451073 -0.315346 -0.003823 0.459500 -0.627831 -0.123239 -0.441325
11 0.137240 -0.045783 -0.130936 0.379388 0.405534 0.074627 0.057566 -0.021290 0.628862 0.370221 -0.004731 -0.055933 -0.213746 0.398624 0.594761 0.134144
25 -0.262151 -0.174183 0.456921 0.231286 0.743727 -0.263470 -0.168130 0.067556 0.688251 0.480489 -0.035928 -0.103347 0.111736 0.525846 0.222366 0.260034
30 0.037116 0.035748 0.336469 0.186741 0.032432 -0.146495 -0.124894 0.238786 0.388699 0.524007 -0.115658 -0.077623 -0.036837 0.422682 -0.041333 0.032152
York -0.463899 0.379437 0.207118 -0.026109 -0.277703 0.366162 0.296090 -0.178494 0.060776 0.508675 -0.083155 -0.260880 0.586091 -0.612788 -0.285150 0.465317
want 0.594528 -0.325686 0.009318 0.456025 -0.686781 -0.288028 0.303993 0.378531 -0.434207 0.039354 -0.061245 -0.516704 0.475391 -0.562769 0.243662 -0.027565
South 0.124214 0.028438 0.204811 -0.479614 -0.205219 0.473312 -0.019973 -0.694100 -0.698526 0.205946 0.382357 -0.161763 0.689190 0.290355 -0.624432 0.590030
Santos 0.362762 0.208007 -0.852671 0.140953 0.374536 0.815189 -0.668394 -0.634929 0.267337 0.145097 0.415974 0.524586 0.382563 1.630008 0.001385 -0.263793
2008. -0.353954 0.180892 0.011898 1.017966 0.397362 -0.077902 -0.238475 -1.030840 0.727551 0.028410 0.197228 0.202060 -1.278606 -0.304612 -1.133492 -0.903883
customer 0.696108 0.849557 -0.029185 0.189860 -0.064862 -0.545247 -0.123561 -0.071626 -0.279688 0.191827 0.413138 0.376390 0.604324 -0.687245 -0.334975 -0.180485
Trend -0.116047 0.581025 -0.283911 -0.208735 -0.105827 0.374394 0.360819 -0.167853 -0.454223 0.007351 0.487132 0.476718 -0.060107 0.456608 -0.417576 -0.231593
June -0.022688 -0.135992 -0.254677 0.650404 0.666174 -0.175023 0.084219 -0.600298 0.403871 0.239973 0.571959 -0.178728 -0.937222 -0.415275 -0.922309 -0.543264
CNET 0.429694 -0.201768 0.779374 0.210942 -0.559152 0.443036 0.884902 0.016637 -0.468654 0.470145 0.821117 0.032742 -0.041271 -0.304100 0.699223 0.655553
Refresh. -0.176260 0.041872 0.201103 0.146445 0.151253 0.266981 -0.021333 -0.056630 0.393480 0.780690 0.638646 0.272611 0.210639 0.409800 0.245694 0.282656
City -0.021248 0.060988 -0.024551 0.049467 0.019120 0.645277 0.118737 -0.319067 -0.102790 0.319525 0.021776 -0.141945 0.698794 0.175900 -0.569730 0.501944
know 0.527629 -0.275294 0.070244 0.572676 -0.473560 -0.301215 0.210614 0.004533 -0.523474 0.295635 0.284580 -0.200398 0.584045 -0.492094 -0.026983 -0.136841
NSA 0.045957 -0.118946 0.096678 -0.289409 -0.079718 0.099767 0.045709 0.018703 -0.073171 0.093328 0.221579 -0.207941 -0.040416 0.319730 -0.088757 -0.496568
go 0.742920 0.067206 0.051103 0.415213 -0.609089 -0.472984 0.940841 -0.126979 0.179593 0.308047 0.678885 -0.935846 0.253515 -0.256041 -0.038809 -0.220413
first 0.152915 -0.041430 0.286666 -0.042826 -0.515778 -0.124488 -0.089569 -0.109303 -0.498199 0.459428 -0.058265 -0.415495 0.245079 -0.242833 -0.393261 0.212562
had 0.851533 -0.983162 -0.101981 0.483490 -0.132253 0.513463 0.295139 -0.106360 -0.083588 0.529940 0.900653 0.204621 0.548607 -0.188041 0.291481 -0.520906
year 0.565107 -0.473089 -0.206828 0.319964 -0.478914 0.501993 0.322868 0.042019 -0.291754 0.286469 0.822861 0.055932 0.487789 -0.144597 0.049599 -0.467336
provides -0.183902 -0.053636 -0.135431 -0.260377 -0.584140 0.262340 0.139429 -0.452245 -0.079197 0.069710 0.158034 0.029647 0.644208 0.304238 -0.756617 0.073471
et 0.030652 -0.205252 0.090528 0.093196 -0.231877 0.205291 -0.157314 -0.498998 0.576865 -0.077285 -0.200000 0.325400 0.468543 0.424915 0.104300 -0.971467
15 0.308331 -0.046240 0.279359 0.163516 0.923552 -0.144971 0.057062 0.154745 0.406870 0.440891 -0.147476 -0.122490 -0.193308 0.211711 0.465457 0.226921
check 0.037160 0.288909 0.774935 -0.071336 -0.073511 -0.473631 0.454638 -0.262486 -1.199279 -0.177104 1.072478 -0.039616 1.071613 -0.125300 -0.034971 0.171146
years 0.673624 -0.124647 -0.111381 0.396879 -0.118640 -0.131094 -0.267650 0.399334 0.010026 0.247989 0.246030 -0.162079 -0.038200 -0.008769 -0.665645 0.184129
community 0.062524 0.324361 0.189848 0.027763 -0.437813 -0.623714 -0.042418 -0.089216 -0.259986 0.122418 0.331759 0.221173 -0.024505 -0.321516 -0.464179 0.479517
2012 -0.373936 0.090077 0.521483 0.514919 0.642980 0.027174 0.504985 -0.046448 0.428713 0.808380 -0.160093 -0.271133 -0.283895 0.548550 0.339450 0.067086
well 0.753382 -1.022767 0.338381 0.387511 -1.267810 -0.570060 1.202958 -1.058970 -0.189498 0.369016 -0.134482 0.239982 0.126578 -0.173624 0.086676 -0.199221
Kong -0.109663 0.435835 -0.259078 -0.316989 0.107247 0.142556 0.099237 0.078831 -0.045466 0.039393 0.519418 0.305460 0.248794 0.815605 0.114774 -0.008877
IT 0.440656 0.479395 -0.185248 -0.462392 -0.083779 0.090971 0.438271 -0.313867 0.471757 -0.062964 0.344765 -0.096935 0.194728 -0.345962 -0.589094 0.045831
feed -0.953905 0.451374 0.495120 0.217061 -0.686859 0.106428 -0.605742 0.170104 -0.288791 -0.090482 0.805375 -0.322731 0.039533 -0.037745 -0.590811 -0.024918
find 1.385427 -0.366779 0.503535 0.236671 -0.403772 -0.257377 0.872862 -0.084188 -1.058475 0.433721 0.349530 0.243057 -0.107569 -0.842213 -0.397191 0.518361
MTN 0.118696 0.584787 -0.197937 -0.374029 -0.222413 0.259734 -0.501840 0.097241 -0.230613 -0.144915 0.827117 0.321087 -0.049214 0.417484 -0.210289 -0.207684
September -0.423734 0.463305 -0.334687 1.020197 0.569063 -0.381878 -0.168451 -0.941844 0.787844 -0.160742 0.569201 0.086640 -1.313817 -0.683072 -0.822105 -0.545163
since 0.213638 -0.259720 -0.200998 0.186154 -0.130631 -0.225038 -0.032286 -0.128174 -0.266055 0.167672 0.275617 -0.046204 0.022212 -0.210526 -0.418996 0.091565
14 0.118080 -0.152074 0.393436 0.326453 0.501614 -0.263624 0.040803 -0.111968 0.570612 0.736056 0.123591 -0.214021 -0.157332 0.362198 0.430435 0.350426
tweeting 0.329731 1.070525 0.949940 0.879591 -1.633464 0.482811 -0.075963 -0.603775 0.087770 -1.093804 -0.762791 -0.143232 0.270591 -0.820987 0.278971 -0.376158
United -0.271436 0.337123 0.547426 0.402996 0.018775 -0.071777 -0.148700 -0.425549 -0.517462 0.006628 0.240585 -0.003774 -0.052948 0.078046 -0.728091 0.043401
Bureau -0.569288 0.016010 0.460027 0.059909 -0.173967 0.418470 -0.792111 -0.294257 -0.056230 -0.236353 0.425288 -0.137230 0.902386 0.379753 -0.632724 0.184513
Like 0.378476 -0.450639 -0.913961 -0.302490 0.071209 -0.347343 -0.713673 0.061629 0.262924 0.726024 0.617468 -0.658336 -0.408048 0.521329 1.049042 -0.582781
Carphone 0.256540 -0.311422 0.214391 0.064239 0.312749 0.571010 -0.092760 -0.343618 0.255486 0.368206 -0.248835 -0.248020 0.809406 0.150108 0.120652 0.119565
Its 0.452684 -0.299159 0.001727 0.109526 -0.437003 -0.148605 0.223614 -0.028208 -0.223011 0.155366 0.031716 -0.319521 0.203162 -0.066297 -0.089322 0.007108
7, -0.380694 0.185016 0.677246 0.126209 0.598926 -0.316517 0.276656 -0.030851 0.932100 1.215752 -0.324986 -0.520176 -0.426564 0.722990 0.128718 0.413660
research 0.688791 0.611874 0.198605 -0.625024 -0.189378 -0.013481 0.318934 -0.101079 0.452687 -0.567922 0.149383 -0.084692 0.404772 -0.581797 -0.799750 0.837221
Reuters -0.496859 0.775722 -0.145773 0.140116 -0.265837 0.188886 -0.289080 -0.337780 0.477556 0.100320 0.016999 0.097327 -0.770886 -0.430882 0.466076 0.631569
13 0.214063 -0.160114 0.034690 0.303175 0.488661 -0.395177 -0.067003 0.110981 0.332301 0.612384 0.270319 -0.171274 0.288003 0.179033 0.639295 0.186904
20 -0.094841 0.077349 0.263554 0.020711 0.572193 -0.328498 0.133883 -0.070841 0.577263 0.439105 0.030466 -0.097666 0.029886 0.040270 0.015026 0.180059
am 0.621819 -0.137987 0.186601 0.073139 -0.264090 -0.404710 0.350267 0.298231 -0.246154 0.069508 -0.101550 -0.514058 0.399178 -0.193161 -0.423997 -0.231775
Your -0.064158 0.499010 0.007947 0.322532 -0.214867 0.271659 -0.199610 -0.547954 -0.015036 0.128069 0.525552 -0.021958 0.490138 0.173935 0.111497 0.270788
also 0.466111 -0.501541 0.169949 0.074314 -0.188019 0.080870 0.283053 -0.087416 0.100636 0.366938 0.338938 0.047900 0.247656 -0.587267 -0.466917 -0.210899
day 0.574222 -0.494140 0.141681 0.497470 -0.286246 -0.228936 0.225611 -0.022349 -0.347192 0.124637 0.156831 -0.102304 0.186842 -0.222556 -0.417714 0.249027
Digital -0.009691 0.983478 -0.535341 -0.648476 -0.227472 0.035326 -0.124131 -0.410997 -0.414571 -0.096638 0.280306 0.023009 0.233195 -0.338205 -0.335569 0.937756
PS4, 0.413004 1.034584 0.628581 -0.776027 -0.557790 -0.912650 0.058594 -0.788192 1.549525 -0.161607 1.393868 -0.493850 -0.892408 -1.272097 -1.546449 0.263712
denial 0.489848 -0.445329 0.313519 0.456367 0.177671 -0.565769 -0.093017 0.088571 -0.528856 0.349242 0.187636 -0.763752 0.196342 0.645466 -1.301032 0.486489
pic.twitter.com/ 0.267696 0.129118 -0.005250 0.095171 -0.087171 0.475988 0.076750 -0.191343 0.458424 0.530317 -0.119844 -0.275470 -0.093483 0.341875 0.521459 0.016618
group 0.251753 0.179670 -0.005356 0.341441 -0.447145 -1.038906 0.094789 -0.258606 -0.544765 0.227572 0.496996 -0.568369 0.037498 -0.113856 -0.598714 1.003214
squad 0.062570 -0.601983 0.126476 0.149425 -0.218246 -1.010501 0.525347 0.215471 -0.617625 0.270226 0.408319 -0.236500 0.652515 -0.024746 0.023257 -0.213340
3; -0.084236 -0.984908 -0.117684 -0.721763 -0.636088 -0.538145 -0.537527 -0.311115 0.126117 0.459501 0.530590 -0.862359 -0.860555 0.527625 0.837849 -0.572366
PS3, 0.818437 1.263131 0.293973 -1.027478 0.114409 -1.126881 0.417646 -0.460203 1.707516 0.094420 1.320025 -0.192691 -0.353418 -1.098577 -1.646529 0.316269
place 0.529641 -0.015458 0.242677 0.220008 -0.047015 0.042668 0.453723 -0.025212 -0.780623 0.396528 0.712789 0.036888 -0.044943 -0.466615 -0.665276 0.351189
Parliament -0.364312 0.454182 -0.215620 -0.392933 -0.229949 0.271968 -0.416369 -0.464513 0.012344 0.201412 0.585591 0.078444 0.300547 0.390242 -0.426363 0.422434
Shell -0.309383 0.581197 -0.194557 -0.409496 0.197685 0.247440 0.061832 -0.087549 -0.279427 0.305927 0.444617 0.156197 -0.083455 0.606477 -0.309068 -0.300187
conversation. -0.452440 0.241411 0.153062 -0.477818 1.288979 -0.174795 1.046693 -0.208084 -0.884903 0.680449 -0.353364 -0.492453 0.406945 -0.411719 -0.594175 0.454488
experience 0.390525 -0.738487 -0.133882 0.273608 -1.135067 -0.407047 -0.034339 0.219283 0.416967 -0.125215 0.433041 -0.244737 -0.316641 -0.802534 -0.447205 0.621719
1, -0.232094 0.155111 0.564271 0.321718 0.618265 -0.205122 0.210924 -0.144892 0.590552 0.899875 -0.216176 -0.374010 -0.421196 0.680990 0.269357 0.351107
2011. -0.327583 -0.064985 -0.359080 0.605838 0.904886 0.118497 0.228707 -0.670395 0.755720 0.129958 -0.027194 0.028134 -0.925459 -0.117360 -0.643829 -0.626084
! 0.066641 -0.379934 -0.261091 -0.165512 -0.274837 -0.030811 0.025791 -0.150549 0.103765 0.256949 0.109819 -0.026117 -0.083423 0.543161 -0.022078 -0.141581
today 0.163942 -0.020736 0.102500 0.134356 -0.222061 0.048497 0.168352 -0.129889 -0.073572 0.042587 0.175878 -0.107611 0.141553 0.019151 -0.277251 0.069513
It 0.175339 -0.168789 -0.067709 0.289002 -0.185836 0.080058 0.041794 -0.054173 0.094561 0.038803 0.369270 -0.198264 0.186698 -0.208195 -0.219089 0.362766
Account -0.853591 -0.238444 0.498131 0.519220 -0.431334 -0.044159 -0.737890 0.269785 0.477316 -0.089136 0.976511 0.125753 0.263135 0.059636 -0.789215 0.453179
including 0.059164 0.122321 -0.147857 0.873060 -0.136620 -0.121893 -0.044197 -0.188769 0.039377 0.358426 -0.167797 -0.150616 -0.325727 -0.586596 -1.349336 -0.024726
twitter -0.575777 0.438149 0.532777 0.460044 -0.502506 0.428821 -0.866648 -0.039302 -0.314817 -0.031044 0.677557 0.126568 0.049806 0.060458 -0.299518 0.123817
All 0.036605 0.161448 0.003554 0.064665 0.418176 0.047772 0.373826 -0.438150 -0.312924 0.081618 -0.032299 -0.479185 0.378213 -0.098189 -0.125048 0.108018
17 0.082093 -0.114060 0.226833 0.526377 0.229841 -0.408960 0.045626 0.050068 0.634415 0.703114 -0.053930 -0.193467 -0.050607 0.247740 0.425717 0.330749
22 -0.055940 0.021439 0.292925 0.412759 0.676604 -0.053698 0.182319 0.094798 0.578180 0.537578 -0.086124 -0.101862 0.059109 0.513231 0.447771 0.221208
saying -0.155433 -0.007360 -0.128606 0.128533 0.784846 -0.443954 1.858458 -0.213970 -0.453477 0.552447 -0.573649 -0.861398 1.390055 -1.016754 -0.940421 0.340954
funds 0.637701 0.261413 -1.191721 0.747481 -0.919626 -1.144279 0.806601 0.458594 0.059522 0.799998 0.051517 0.710734 0.513228 -1.381632 0.035113 -0.444777
where 0.400743 -0.248858 0.140645 0.415683 -0.485952 -0.157765 0.119045 -0.182811 -0.159041 0.112124 0.171243 -0.165031 0.274980 -0.434793 -0.369789 0.202665
WikiLeaksVerified 0.323437 -0.763287 0.593019 0.186168 0.469795 -0.767331 -0.872946 -0.290152 0.800374 0.045075 0.973020 -0.019034 0.348681 -0.525534 1.101713 0.554180
going 0.456485 -0.371103 0.152218 0.533996 -0.514389 -0.070221 0.342944 -0.066611 -0.277429 -0.073600 0.385497 -0.318151 0.528877 -0.324168 -0.121733 -0.181781
+ -0.279084 -0.097302 -0.013061 -0.660391 -1.273686 -0.333139 -0.326439 -0.609121 -0.302096 -0.050874 -0.167448 -0.222973 0.148072 0.241755 -0.704349 0.148454
business 0.483870 0.247198 0.575467 0.172137 -0.618699 -0.301028 0.263594 -0.026378 -0.244601 0.354741 0.077682 -0.077021 0.163634 -0.118908 -0.886488 0.342788
Now 0.963169 1.027390 -0.288335 -0.474390 -0.330756 0.005260 -0.048289 -0.210317 -0.832358 -0.185358 0.360072 0.067492 0.049992 -0.430397 -0.299351 1.093282
need 0.484924 0.111457 -0.173564 0.396142 -0.512086 -0.351859 0.186838 0.041773 -0.513191 0.243872 0.268685 -0.188061 0.554249 -0.337789 0.042804 -0.099308
home 0.161295 0.092139 0.370695 0.138346 -0.599754 0.497945 -0.237982 0.144196 -0.173497 0.026645 0.296765 -0.049411 0.323997 0.396352 -0.554109 0.413314
would 0.484591 -0.502407 0.324540 0.318423 -0.426554 -0.328864 0.256860 -0.187760 -0.457758 0.201278 -0.085027 -0.214208 0.322743 -0.347348 0.208223 -0.032188
PlayStation, 0.130045 0.953604 0.785537 -0.812933 -0.519308 -0.621046 -0.361439 -0.156088 1.477024 0.236084 1.458794 -0.293461 -0.472553 -1.176920 -1.300208 -0.212759
HSBC -0.087679 0.143450 0.321552 0.167727 0.132669 0.118629 0.068520 0.106480 0.210621 0.383407 0.470919 0.010485 -0.008382 0.194029 -0.216382 0.179224
receive 1.038191 0.627953 -0.432994 0.016628 -0.143461 -0.463902 0.402914 -0.130259 -0.538524 0.753387 0.568026 -0.731423 -0.247139 -2.096448 0.076444 0.442507
Just 0.159212 -0.159979 0.084842 0.046085 -0.009721 -0.238121 0.048050 0.045507 -0.066242 0.467052 -0.165524 -0.305292 0.146454 0.238509 -0.188850 -0.062960
more. -0.311414 0.896373 -0.195775 -0.382213 -0.475042 -0.420622 0.322573 -0.577700 0.484735 -0.015731 0.601069 0.179826 -0.023396 -0.400800 0.193078 0.543616
19 0.177332 -0.373746 -0.013396 0.164502 0.456852 0.052633 -0.067398 0.048709 0.868304 0.246497 0.039438 -0.010867 0.112890 0.469123 0.052534 -0.070489
got 0.515571 -0.350311 -0.039087 0.317157 -0.506736 -0.213788 0.234084 0.180339 -0.406194 0.438907 0.008650 -0.177330 0.212299 -0.199204 -0.124528 -0.233958
largest -0.195669 0.246434 0.341242 -0.007436 -0.432580 -0.522841 -0.018115 -0.301520 -0.957771 -0.046008 0.527608 -0.102844 0.091047 -0.396329 -0.788144 0.923914
un 0.402550 -0.408492 0.320721 -0.030098 -0.265579 0.103213 -0.384070 -0.566575 0.707322 -0.150292 -0.096632 0.043645 0.263549 0.291200 0.105855 -0.701150
San -0.048249 0.015535 0.286853 0.081097 -0.371539 0.143787 0.141438 -0.311269 -0.081436 0.556162 0.099930 -0.090808 0.078033 0.216997 -0.459068 0.173190
control 1.284129 -0.211371 -0.871889 -0.304725 -0.439966 -0.859285 1.272815 -0.187181 0.692592 0.890159 0.386914 1.127475 1.450388 -1.796774 -0.044802 -0.151920
12, -0.613451 0.317038 0.432280 0.447037 0.908426 -0.233170 0.223544 0.219527 0.759800 1.035535 -0.322929 -0.139161 -0.438442 0.753439 0.172300 0.359634
18 -0.024468 -0.160417 0.267175 0.280842 0.471897 -0.171686 0.041751 -0.020936 0.518817 0.703903 0.024506 0.019790 0.111176 0.403821 0.386747 -0.067269
Hackers -0.231897 0.076349 -0.103819 -0.066813 -0.093899 -0.172225 -0.040063 -0.018620 0.164915 0.543822 0.385119 0.258316 0.053507 0.618128 0.221227 0.229470
THE -0.033172 -0.401474 0.012904 -0.323615 0.160447 0.272052 0.035858 -0.052221 -0.292394 0.051296 0.238830 -0.036040 0.347378 0.431655 -0.057902 0.088016
Koch -0.080832 0.123853 -0.350626 -0.140595 0.090950 0.396279 0.233799 0.026361 -0.052454 0.558914 0.173198 0.049926 0.387859 0.497171 0.264388 0.225011
against 0.165547 -0.444268 0.161505 0.158708 -0.083250 -0.181348 0.062932 -0.157394 -0.380552 0.327111 0.348425 -0.369407 0.256414 -0.116980 -0.245500 -0.096856
2, -0.297217 0.044990 0.260982 0.100479 0.345125 0.145776 -0.086401 -0.229800 0.532024 0.809658 -0.233089 -0.325511 -0.173646 0.630671 0.214276 0.547753
3, -0.300945 0.109299 0.425304 0.113676 0.543128 -0.202679 0.037263 0.097337 0.776291 1.008398 -0.392323 -0.547697 -0.529985 0.914716 0.198168 0.251034
should 0.389310 -0.285829 0.062683 -0.012705 -0.644582 -0.500866 0.187411 -0.115207 0.002250 0.358132 0.192965 -0.087088 0.348355 -0.455747 0.126329 -0.114883
du 0.027428 -0.357499 0.276255 -0.072261 -0.170058 0.423141 -0.304585 -0.373046 0.283154 0.183743 -0.009363 0.219593 0.334711 0.368439 0.170269 -0.322578
Photos 0.344102 1.056787 -0.090337 -0.069218 0.924696 -0.172131 1.039467 -1.178399 1.374057 0.068085 0.320718 -0.305254 -0.394083 -0.189687 -0.658929 0.045481
Knight -0.054851 0.508813 -0.194612 -0.244652 0.108461 0.339346 0.232464 0.081955 -0.073986 0.233540 0.465460 0.127588 0.085253 0.542789 -0.230265 -0.287172
Liked. 0.321977 -1.339810 0.011555 0.798183 0.694176 0.626375 0.468721 0.853292 0.072291 0.970917 -0.095987 0.845964 0.729563 0.168012 0.588487 -0.042533
gives 0.475061 -0.044663 -1.107100 -0.031387 -0.500182 -1.210948 0.569407 -0.363387 0.445886 1.726806 0.173388 0.709878 0.814960 -1.464430 0.224437 0.558197
Loïc -0.089947 0.733392 -0.479235 -0.724791 0.061950 0.541696 0.271557 -0.062956 -0.233757 0.428755 0.440474 0.626388 -0.206406 0.848580 -0.037378 -0.462086
13, -0.239056 -0.012402 0.541151 0.477351 0.643086 -0.176841 0.057677 -0.072544 0.597550 0.935988 -0.308310 -0.590116 -0.294270 0.477321 -0.009228 0.158118
financial 0.282106 -0.072557 0.369283 0.179022 -0.600780 -0.379761 0.196850 -0.022919 -0.413453 0.234445 0.540907 0.180940 0.163002 -0.472809 -0.118470 0.110169
Charles -0.110717 0.254641 0.105482 0.468466 0.157041 0.465337 -0.164673 -0.047162 0.526752 0.268564 0.217820 0.285006 0.949476 0.095821 0.587945 0.995681
6, -0.600654 -0.074601 0.451247 0.293139 0.700464 0.155182 0.168307 -0.086413 0.904496 0.710473 -0.490092 -0.342778 -0.390305 0.705664 0.218336 0.184538
On -0.251898 -0.026165 0.537762 0.317229 0.347429 0.083495 0.370113 -0.145573 0.353972 0.667465 -0.245712 -0.180856 -0.170064 0.616528 0.037125 0.179893
con 0.263368 -0.184146 0.050626 0.155400 0.007207 -0.340700 -0.323661 -0.728449 0.442169 -0.394291 -0.526004 0.107141 0.315342 0.408489 0.150888 -0.858203
e 0.226668 -0.186789 -0.249528 -0.058818 -0.085812 -0.139919 -0.147897 -0.630784 0.672259 -0.249064 -0.125145 0.084203 0.431960 0.518738 0.105697 -0.659399
23 -0.204074 -0.098873 0.381888 0.196447 0.543545 0.012943 0.282271 -0.077247 0.685268 0.345216 -0.379654 -0.068150 -0.099832 0.466485 0.414581 0.052740
provider 0.098170 -0.027936 0.648401 0.178399 -0.653890 -0.208054 0.444134 -0.380576 -0.830268 -0.197765 0.287139 -0.324900 0.233392 0.008416 -0.781300 0.531182
franchise. 0.292804 1.266208 0.624417 0.586414 -1.741009 0.925860 -1.073605 -0.518319 0.048200 -1.163866 -0.140950 0.496044 0.273937 -1.299186 0.230611 -0.396779
other 0.231987 0.034253 -0.003538 0.060169 -0.227565 -0.158038 0.215340 -0.032447 0.077661 0.160750 0.233620 0.052539 0.474810 -0.221396 -0.051325 0.049147
video 0.438875 -0.013734 -0.316958 -0.105932 -0.029670 -0.301072 -0.081728 -0.190203 0.196622 -0.000453 -0.029228 -0.115613 0.347131 0.056215 -0.300304 -0.048304
Great 0.102232 0.096269 0.218479 0.314665 -0.176709 0.014997 0.076094 -0.024787 0.083594 0.297220 0.064863 -0.255673 0.002241 -0.066358 0.005164 0.122583
Music -0.672933 0.163914 0.004680 -0.283287 -0.067920 0.280439 -0.119815 -0.169259 -0.371718 0.068734 0.387807 0.111484 0.202111 0.652044 -0.543081 -0.332554
And 0.551420 -0.116816 -0.000762 0.147910 -0.150154 -0.013977 0.261458 -0.393186 -0.279047 0.018709 0.080903 -0.306261 0.492676 -0.187374 -0.105682 -0.007103
para 0.132701 0.134687 0.463425 0.036488 0.209105 -0.003890 -0.658440 -0.890416 0.554433 -0.305101 -0.638328 -0.187376 0.375367 0.159118 0.315746 -1.135453
@Sony 0.452335 -0.399870 0.109168 0.430358 -0.356714 0.082666 0.381189 -0.639685 0.114352 0.317174 0.795036 0.322605 0.679875 -0.441355 0.351649 -0.551012
Open -0.150167 -0.004921 0.402245 0.004526 -0.068898 0.163883 -0.408936 -0.282712 -0.255297 0.340360 0.089909 -0.186469 0.057741 0.162538 -0.244351 -0.023556
leading -0.169226 -0.053410 0.575296 0.173562 -0.360901 0.092608 0.241851 -0.214349 -0.627905 0.057505 0.249001 -0.412741 0.376388 0.106232 -0.518533 0.164478
van -0.006670 -0.097880 0.134476 0.320860 0.094917 0.147349 -0.529406 -0.387692 0.544033 0.021072 0.291493 0.090371 0.058242 0.506418 0.194359 -0.175021
tech 0.772183 -0.298233 0.595898 -0.161225 -0.714128 -0.361510 1.100231 -0.060238 -0.265153 0.184546 -0.161179 0.475429 0.081239 -0.727443 -0.488763 1.096221
life 0.639659 0.002968 0.157674 0.432847 -0.263483 0.105420 0.263722 0.082699 -0.241850 0.001284 0.173055 -0.044528 0.387427 -0.313920 -0.161953 -0.008036
August -0.049207 0.467354 -0.470078 0.200861 0.219366 -0.176839 0.244334 -0.646709 0.395535 0.113037 0.191990 0.027749 -0.745102 0.095947 -0.275418 -0.197535
Money 0.644142 0.121572 -0.737754 -0.171324 -0.120395 -0.586477 0.404744 -0.633961 0.855618 1.013893 0.081489 0.266382 1.483444 -1.402680 0.515902 0.588508
takes 0.017486 -0.920751 0.353351 -0.022746 -0.177379 -0.683140 1.690344 -0.554819 -0.716326 0.021227 0.215445 0.828151 0.732936 -0.178050 0.183526 -0.040591
Entertainment -0.590099 0.219982 -0.112568 -0.242547 0.276177 -0.611629 -0.082662 -0.885994 0.510478 -0.051786 0.920965 0.530536 0.346714 0.568636 -0.533382 -0.080490
del 0.094593 -0.097894 -0.007754 -0.017738 0.010278 -0.067365 -0.506974 -0.759716 0.506619 -0.111793 -0.255988 0.106989 0.215416 0.511674 0.417942 -0.897120
27 -0.180584 -0.313825 0.283900 0.298911 0.473558 -0.030932 -0.092803 -0.165538 0.813191 0.696912 -0.316234 -0.194150 -0.117006 0.409579 0.630899 0.130566
21 0.072523 0.011190 0.276660 0.339802 0.517884 -0.030152 0.214139 -0.006380 0.355070 0.726730 -0.078268 -0.153984 -0.116921 0.251134 0.340042 -0.028679
28 -0.427027 0.051196 0.217164 0.594443 0.712371 -0.358748 0.120179 -0.274468 0.746313 0.659137 0.015811 -0.042541 0.080373 0.310138 0.460630 0.435832
le 0.216994 -0.433861 -0.168938 0.014678 -0.450587 0.318530 -0.284603 -0.433053 0.237612 0.160728 -0.358064 0.099011 0.112037 0.407120 0.079633 -0.638915
report 0.337303 -0.699257 0.253369 0.192442 -1.091907 -0.218648 0.295318 0.102349 0.055919 0.547091 0.874507 -0.398983 0.344811 -0.694262 -0.249026 -0.429881
attacks 0.244747 -0.012043 0.046165 0.037935 -0.303641 -0.521163 0.513286 -0.441970 -0.160311 0.025252 0.460193 -0.153410 0.200952 0.073479 -0.190876 -0.059912
Member 0.172277 -0.217334 0.205935 -0.121182 -0.144070 -0.030999 -0.017885 -0.205273 0.116488 0.264903 -0.035079 -0.041423 0.284218 0.491414 -0.418194 0.352764
Details. 0.161256 -0.263876 -0.048807 0.474696 1.270819 -0.532545 -0.378770 0.461964 1.035879 1.244533 0.316975 0.217840 -0.189569 0.430375 0.371340 0.274740
which 0.617114 -0.446466 0.422663 0.497786 -0.374293 -0.124283 -0.028656 0.004361 -0.272105 -0.080264 0.113940 -0.170247 0.305785 0.052663 -0.541032 0.258237
UTP -0.354185 0.372457 0.001712 0.064507 -0.116365 0.241054 0.051203 0.038590 -0.307000 -0.302846 0.110296 -0.022877 0.251654 0.706469 -0.204258 -0.047406
European -0.048339 0.200212 -0.255554 -0.651575 -0.552157 0.441981 -0.322204 -0.241539 0.193887 0.416045 0.500924 -0.185001 0.401403 -0.027209 -0.204727 0.649691
Meetup 0.066683 0.357589 -0.295537 -0.176782 -0.417688 0.035880 0.289312 -0.226830 -0.231753 0.352596 0.290542 -0.047395 -0.172967 0.625918 -0.529839 0.067361
Reuters. -0.360938 1.343017 -0.535751 -0.331594 0.105404 -0.156484 0.237388 -1.352366 1.072569 -0.621212 0.509447 0.495308 -0.739112 -0.214350 -0.610111 0.156542
Head -0.111387 0.149595 0.090646 0.063095 0.053787 0.455176 -0.147037 -0.044464 0.071034 -0.158183 0.283101 0.130814 0.105370 0.638577 -0.486733 0.418342
Computer -0.504661 0.252067 0.138906 -0.258950 0.071529 -0.870302 0.053737 -1.022402 0.540462 -0.286429 0.845100 0.556090 0.505430 0.325638 -0.668884 -0.080708
5, -0.521228 -0.019861 0.528503 0.294011 0.611014 -0.368452 0.105225 0.167455 0.763760 1.069603 -0.359184 -0.206811 -0.482107 0.695472 0.424085 0.301954
La -0.505764 -0.205181 0.256350 -0.662045 0.265230 -0.349734 -0.429663 -1.541742 1.209060 -0.419225 0.146607 0.037705 -0.037731 -0.111585 -0.212375 -0.406496
right 0.657644 -0.123492 -0.020906 0.037359 -0.424921 0.039757 0.294993 -0.056115 -0.363722 0.206228 0.045948 -0.186181 0.352834 -0.398187 -0.287344 0.002723
say 0.444953 -0.206982 -0.069994 0.189132 -0.377064 -0.392290 0.211816 0.083851 -0.168640 0.247671 -0.011933 -0.241244 0.594423 -0.396347 -0.002210 0.151526
President -0.125742 -0.192737 0.189003 0.400407 0.053790 -0.046422 -0.244008 0.013724 -0.057383 0.141152 0.193759 -0.045015 0.231619 0.171084 -0.203224 0.244886
12 0.236855 -0.230786 0.273022 0.141172 0.336368 -0.218159 -0.340522 0.077052 0.269097 0.470063 -0.090001 -0.235504 -0.063527 0.440996 0.416713 -0.082108
good 0.394745 -0.404173 -0.151502 0.214808 -0.438842 -0.336607 0.252897 -0.122224 -0.503542 0.389000 -0.065958 -0.292585 0.362978 -0.017577 -0.190701 -0.105988
Pop -0.007102 0.634961 -0.243474 -0.155065 -0.115758 0.131764 -0.229865 -0.138582 -0.065423 0.279165 0.375985 0.103734 -0.061834 0.475524 -0.171319 -0.059142
vs 0.137266 -0.431549 -0.394074 0.296794 0.014558 0.537890 -0.150167 -0.630360 0.165362 -0.082867 0.018545 0.507918 -0.201576 0.984940 -0.032597 0.001834
Global -0.162926 -0.254446 0.118110 0.005626 -0.182546 -0.013904 -0.133383 -0.319957 0.079062 -0.051938 0.354336 -0.158509 0.159258 0.259475 -0.006679 -0.230470
Welle -0.014414 0.482758 -0.476204 -0.394385 -0.005117 0.124416 0.025762 0.042299 -0.188831 0.139763 0.359374 0.444908 -0.158219 0.616928 -0.131971 -0.246150
26 -0.016358 -0.042872 0.362115 0.486196 0.520459 -0.030173 0.080678 -0.116570 0.714738 0.484741 0.005146 -0.095667 0.048168 0.252698 0.734387 0.106339
à 0.362581 -0.117691 0.040119 -0.110933 0.072369 0.162293 -0.191422 -0.287116 0.452566 0.049026 -0.191882 0.174757 0.353863 0.346407 0.093695 -0.706353
How 0.300809 -0.108563 0.120338 0.210751 -0.184952 -0.094626 0.182033 -0.011568 -0.008289 0.285201 0.168984 -0.354102 0.234768 -0.198558 -0.205386 0.073003
Solutions -0.163809 0.381698 -0.064850 0.027078 0.068131 0.069047 0.015618 -0.025076 -0.174917 0.272695 0.502582 -0.043195 0.355980 0.491420 -0.460219 -0.163829
views -0.396435 0.757181 -0.067967 -0.520621 0.094078 0.097024 0.875225 -0.439034 -0.038014 0.046586 0.197645 -0.341775 0.461426 -0.324626 -0.493616 0.713860
Live -0.214169 0.071459 -0.002664 0.023793 -0.420397 0.150920 0.475861 -0.157969 -0.080739 0.112156 0.313112 0.209855 0.198655 0.460044 -0.260825 0.173412
being 0.476466 -0.096364 0.033581 0.138129 -0.444755 -0.342958 0.329046 -0.110060 -0.079242 0.158950 0.387507 -0.396781 0.113697 0.048169 -0.258118 -0.167901
submit -0.190522 -0.754022 -0.366137 0.720938 -1.104547 -1.031094 0.840580 -0.484420 -0.202385 -0.057078 0.299657 -0.751118 0.477984 -0.654668 -0.636810 -1.328043
One -0.133212 -0.076157 0.026977 0.119530 -0.029086 -0.129835 -0.316704 -0.031969 0.133826 0.426991 -0.097855 0.070341 -0.024489 0.139446 -0.007121 0.179235
event -0.657221 -0.443285 0.470314 0.005579 0.104521 -0.476885 0.312844 -0.019996 -1.217981 -0.093036 0.575002 0.215895 0.640523 0.132983 -0.264521 0.039296
Europe -0.386167 0.081656 0.477869 0.119960 -0.033117 -0.053402 -0.153959 -0.034301 -0.201287 0.090350 0.020418 -0.021143 0.495575 0.378091 -0.136794 0.034538
Support 0.159397 0.880238 0.176463 -0.455012 0.226868 -0.130936 -0.114861 -0.774761 0.709159 -0.028830 0.599045 0.140930 0.150274 -0.080855 0.215083 0.197115
take 0.599924 0.042280 0.251430 0.430125 -0.765012 -0.264528 0.144362 -0.023411 -0.304695 0.290429 0.090250 -0.403658 0.262319 -0.404370 -0.169191 -0.189178
around 0.320141 0.169640 -0.107858 -0.189081 -0.382537 -0.225187 0.213766 0.056328 -0.229404 0.146694 -0.068725 -0.151614 0.321307 -0.422744 -0.689579 0.225111
KOMU -0.077568 -0.482223 -0.248796 0.314649 0.073352 0.071845 0.088653 -0.309774 0.396307 0.414281 0.991310 0.578588 -0.348159 0.695230 0.441807 0.432124
pictures, -0.508801 1.787915 0.050261 -1.317243 -0.515051 -0.849988 0.107159 -1.639226 1.370208 -0.754821 0.565213 0.394071 -0.272004 -0.244241 -0.438332 1.044332
What 0.196198 -0.230267 -0.213705 0.266171 -0.205246 -0.042111 0.230806 -0.095402 -0.264385 0.150342 0.250355 -0.251639 0.124882 0.051830 -0.056598 0.017529
part 0.309045 -0.237692 0.321095 0.369791 -0.486701 -0.341828 -0.213428 0.129808 -0.358662 0.084705 0.245024 -0.633744 0.163570 0.333962 -0.685202 0.375933
Managed -0.512969 -0.236053 0.223731 -0.536081 -0.292498 0.528588 -0.776369 -0.222886 0.592621 -0.302001 0.917035 0.186769 0.033589 -0.270743 -0.806814 0.424978
SEC -0.185340 0.219849 0.337255 0.157745 -0.092639 0.335986 -0.100819 -0.073580 -0.093544 0.089484 0.031692 -0.069870 -0.112629 0.099369 -0.142783 0.098098
RBS -0.128910 0.675404 0.174188 0.194148 0.230363 -0.251662 -0.005820 -0.024922 0.171463 0.433575 0.391822 -0.062392 0.094147 0.131367 0.115760 0.281345
Schwab -0.173200 0.878067 0.793335 0.407740 -0.055365 0.312275 0.200403 -0.247039 0.698983 0.155911 0.503883 0.653122 0.737992 -0.159530 0.579000 0.732403
using 0.150843 -0.809573 0.337235 0.728915 -0.750403 0.508446 0.245620 0.305767 -0.277218 0.320133 -0.468810 -0.240057 0.088830 0.298151 -0.671123 0.642040
last 0.356514 -0.019750 0.229416 0.251400 0.135604 -0.261579 0.026835 -0.036699 -0.391105 -0.026033 -0.030575 -0.139379 0.357911 -0.069619 -0.255099 0.112566
cloud 0.030740 -1.048470 0.557667 -0.118499 -1.118590 -0.025230 -0.218070 -0.016851 0.871818 0.352512 0.220567 0.384819 0.116998 -1.208452 -0.769447 0.828213
alerts -0.372099 1.283954 -0.054684 -0.606997 -0.212129 0.281371 0.149710 -0.354243 0.563317 0.206415 1.083078 0.667875 -0.371779 -1.063962 -0.076019 1.650430
Center 0.061596 -0.071994 0.292168 -0.119339 -0.347309 0.591287 -0.402843 -0.090012 0.621386 0.128483 0.524412 0.587977 0.391275 0.313405 -0.327572 0.212061
Tweet -0.153144 0.146192 0.037794 0.201195 -0.694950 0.116886 0.293916 0.029745 0.037615 -0.031649 -0.103801 0.055648 0.365299 0.185858 0.135302 0.046631
U.S. -0.053979 0.179867 0.386463 0.052077 -0.135396 0.196263 -0.201261 -0.021183 -0.415610 -0.124922 0.116594 -0.355960 0.327855 0.058357 -0.162740 0.180827
analysis 0.142392 1.529413 -0.490471 -0.752045 -0.132297 -1.727390 0.094545 -0.173309 0.347336 -0.254329 0.278408 -0.153947 1.017679 -0.977569 -0.010916 1.309604
want. 0.702410 0.835617 -0.792611 -0.588144 0.346019 -1.210274 0.362984 -0.359645 -0.805874 0.450652 0.638940 -0.084932 0.036860 -1.840639 -0.118566 -0.539687
WikiLeaks -0.102581 -0.319397 0.780712 0.210506 0.400621 -0.642606 -0.050892 -0.283968 0.813651 0.442729 0.362529 0.133995 0.358437 -0.322839 0.867978 0.153449
makes 0.208685 0.223522 -0.324885 -0.270081 -1.353117 -0.006493 0.376779 -0.405497 -0.139606 0.188022 -0.155985 -0.220919 -0.124011 0.116270 -0.476798 0.558044
off 0.347738 -0.114164 0.015785 0.167677 -0.368046 0.023276 0.180834 -0.136099 -0.467460 0.030027 0.290070 -0.321494 0.044190 -0.103710 -0.301269 0.141966
look 0.587122 -0.172346 0.233404 0.442583 -0.159474 -0.085904 0.184824 -0.054253 -0.155232 0.172614 0.228673 -0.319166 0.372604 -0.202816 -0.371914 -0.025907
run 0.394757 -0.233015 -0.252213 0.268459 -0.110458 -0.130095 -0.031254 0.020494 -0.294787 -0.064940 0.154549 -0.336540 0.496244 -0.280780 -0.223563 0.251061
Join 0.181514 0.448314 0.229059 -0.083454 -0.444558 -0.019556 -0.034941 -0.186934 -0.122725 0.260116 0.216722 -0.364105 0.200787 -0.269003 -0.317983 -0.024153
Denial -0.053800 -0.273273 0.402884 0.552467 -0.153336 -0.095300 -0.049389 0.036291 -0.467980 0.022583 0.361276 -0.682399 -0.273366 0.454208 -0.359276 0.370952
July -0.259049 -0.053584 -0.207698 0.436276 0.454390 -0.081342 -0.201845 -0.670144 0.382341 0.449695 0.313028 -0.065884 -1.012548 -0.138297 -0.922196 -0.263865
@PayPal. 0.779556 0.010859 -0.241856 -0.771094 -0.417899 -0.528955 0.239574 -0.705546 0.780578 0.932487 0.591641 0.201511 0.893149 -1.102638 0.498512 0.630526
State -0.163327 -0.366507 0.169001 0.027893 -0.215774 0.418412 -0.257465 0.163077 -0.433067 -0.118055 0.201990 0.094061 0.265020 0.185943 -0.744565 0.005485
Columbia, 0.513872 -0.256638 0.198875 0.264369 0.127990 0.562564 0.251500 -0.401433 0.210754 0.300386 0.133392 -0.105664 0.422622 0.459030 -0.209105 0.178210
send, 1.007277 0.687599 -0.703995 0.812483 -0.138285 -0.744796 0.842696 0.186921 -0.340713 0.729225 0.770848 -0.746657 -0.055603 -2.308493 -0.032390 0.144118
online 0.224329 -0.222857 0.060940 0.320601 -0.462242 -0.031195 0.167793 -0.094349 -0.307928 0.160684 0.170410 -0.237636 0.169044 -0.041292 -0.284019 0.260831
Dont 0.372311 -0.182647 0.073575 0.270393 -0.349576 -0.191688 0.079805 -0.247645 -0.175903 0.196966 0.170705 -0.245738 0.179418 0.134830 0.016066 -0.031065
channel -0.785309 0.549391 0.376056 0.677365 -0.590644 -0.078105 -0.871346 -0.140687 0.299961 -0.500575 0.855123 0.093137 -0.259893 -0.961910 0.084459 -0.419920
team. 0.558559 0.829624 -0.305615 -0.584302 -0.648062 -0.247064 -0.601335 -0.598526 -0.430789 -0.229430 0.222868 0.233005 0.102311 -0.674810 -0.743527 0.763320
November -0.055907 -0.011724 -0.196981 0.394182 0.372863 -0.172419 0.266343 -0.487114 0.431557 0.375059 0.122048 -0.015241 -0.911068 -0.022748 -0.498809 -0.320163
4; -0.018080 -0.825496 -0.215620 -0.714833 -0.584034 -0.272190 -0.290766 -0.302265 0.287953 0.583182 0.577997 -0.954561 -0.736091 0.609748 0.775568 -0.652449
every 0.460389 -0.197953 -0.042947 0.355778 -0.292333 -0.242731 0.216252 -0.079665 -0.122608 -0.013818 0.049599 -0.241762 0.215648 -0.154094 -0.409877 0.256087
Day -0.043489 0.164398 -0.180191 0.118708 -0.099029 0.104017 -0.242690 0.121403 -0.365181 -0.094020 0.188515 -0.219681 0.150280 0.505030 -0.343995 0.242930
says 0.081841 -0.294009 0.178131 0.250013 -0.512711 0.046979 0.205367 -0.089303 -0.459239 0.350807 0.079323 -0.155836 0.107697 -0.184937 -0.221316 -0.019429
spend, 1.803198 -0.003894 -0.832544 0.160925 -0.190111 -1.275939 0.834232 0.032494 -0.056055 1.126046 -0.093376 -0.858579 0.002400 -2.114649 0.067527 0.038141
Brunswick -0.028699 0.046071 -0.179469 0.150105 0.026729 0.136865 -0.054852 0.150655 -0.275096 0.248771 0.391785 -0.052031 0.179918 0.213867 -0.234516 0.156137
BBC. -0.382997 1.829183 -0.049369 -1.326199 -0.675960 -0.717247 0.164136 -0.461185 0.268825 -0.096287 0.416181 0.841257 0.172573 -1.200136 -0.062875 0.909963
local 0.312037 -0.090653 0.043596 0.183309 -1.092144 0.165323 0.542513 0.132880 0.127174 0.215495 1.032677 0.299180 0.411272 -0.552558 -0.417940 -0.283484
o 0.168603 -0.056653 -0.206328 -0.250148 0.069315 -0.278533 -0.280191 -0.497013 0.297118 -0.192522 -0.328120 0.031096 0.163945 0.728222 0.193245 -0.510641
Canada -0.218496 0.431207 0.039335 0.255746 -0.026710 0.041838 -0.262404 0.142494 -0.471711 0.174295 0.525875 -0.271888 0.315252 0.229931 -0.550437 0.175495
CSIS 0.040842 -0.037383 -0.116381 -0.311351 -0.524175 0.209366 -0.007280 -0.344922 0.246107 0.248792 -0.236720 -0.089469 0.623370 0.330935 -0.141805 0.294559
@EPN 0.299698 -0.226965 0.144332 -0.070039 -0.103776 0.164215 -0.207474 -0.719172 0.730547 -0.114100 -0.399901 -0.049256 0.378778 0.316728 0.319465 -0.745963
School -0.179712 0.506962 0.162030 0.172363 0.040785 0.204054 -0.212694 -0.398708 -0.326774 0.210686 0.788474 -0.107058 0.226958 0.296793 -0.537664 0.132659
es 0.309426 -0.171392 -0.052696 0.327062 0.439966 -0.233980 -0.149389 -1.413712 0.646882 -0.317860 -0.521548 0.717919 -0.368567 0.063954 -0.558819 -1.322218
Team -0.290833 0.057354 0.136538 -0.042004 -0.052484 0.086915 0.073848 -0.273126 0.009567 0.287212 0.125776 0.167239 0.233896 0.381775 0.129514 -0.089387
cant 0.572057 -0.357281 0.067164 0.247680 -0.473863 -0.446317 0.080619 -0.033695 -0.366603 0.298455 0.170458 -0.245207 0.401187 -0.261518 -0.023126 -0.017337
UK. -0.193683 0.373999 0.067978 -0.154060 -0.094829 -0.174368 -0.062298 -0.143375 -0.385637 0.266274 -0.007281 0.019969 0.135582 0.417411 -0.264242 0.031439
free 0.164591 -0.045840 -0.122648 0.137887 -0.308782 0.028314 0.296263 0.105200 -0.287960 0.032279 0.052568 -0.495828 0.235941 -0.064884 -0.125946 0.185317
events 0.016405 0.545694 0.217101 -0.393189 -0.931195 0.112041 0.263242 -0.276266 0.051409 -0.258391 0.330920 -0.247980 0.722216 -0.194589 -0.337746 0.437873
Spamhaus 0.045043 -0.354567 0.227746 -0.009773 0.604186 0.239002 0.178697 -0.146862 0.251003 0.781116 -0.208974 0.196415 0.167524 0.340353 0.055252 0.118165
leader 0.222244 0.137904 0.578254 -0.281815 -0.970570 -0.021032 -0.097680 -0.644343 -0.405834 0.278054 -0.354645 -0.765426 0.140265 0.340815 -0.752864 0.297920
31, -0.483738 0.278300 0.616382 0.269341 0.572933 0.153819 0.218436 -0.357104 0.805513 0.629770 -0.515799 -0.278960 -0.539767 0.719815 0.136070 0.319887
Saudi 0.151703 -0.200919 0.087668 0.462521 -0.248243 -0.163193 -0.039757 0.127180 0.203223 0.032593 -0.036912 -0.431244 0.433257 0.497603 -0.194559 0.219549
still 0.508632 -0.361112 0.071985 0.270740 -0.236590 -0.215790 0.293760 -0.168361 -0.318611 -0.033922 0.303339 -0.611415 0.376271 -0.306363 0.092201 -0.086212
Find 0.680426 0.511764 0.131128 -0.218298 -0.386266 -0.368153 -0.272644 -0.168262 -0.345844 0.275515 0.189895 0.037015 0.051404 -0.338573 -0.419310 0.754365
TV -0.077411 -0.019729 0.106061 -0.021663 -0.217865 0.044057 0.062694 -0.202833 -0.087181 0.014702 0.128701 -0.009975 0.137202 0.180765 -0.012718 0.146702
keep 0.169568 0.121708 0.135666 0.284169 -0.493937 0.073450 0.345874 0.083426 -0.195180 0.289326 0.186107 -0.436275 0.556081 -0.172595 -0.122463 0.233096
IDG 0.021038 0.305620 -0.023030 -0.777454 0.177757 0.194974 0.126964 -0.530567 -0.176261 0.041024 0.489083 -0.274024 0.530998 0.052644 -0.554853 -0.589264
crime 0.427905 -0.959244 0.149733 0.043932 -1.046598 -0.674681 0.507728 -0.248227 0.317520 0.613122 0.725017 -0.140508 -0.040191 0.079185 -0.568007 -0.181703
worlds -0.052862 0.169711 0.252783 -0.031956 -0.161891 0.026969 -0.055432 -0.344201 -0.808123 0.355684 0.232960 0.018265 -0.091215 -0.242547 -0.927221 0.558185
@LizardLands -0.865694 -1.029572 0.017976 0.024113 0.230714 -0.511621 0.739675 -0.486123 0.023482 0.093500 0.429405 -0.029009 0.714400 -0.030684 0.484355 -0.024122
Anonymous -0.363673 -0.241205 0.187546 0.183390 0.155756 -0.443953 0.360781 -0.118379 0.440025 0.401794 -0.051664 0.004981 0.306493 0.155808 0.567856 0.279432
next 0.539842 -0.082581 0.229821 -0.010745 -0.081242 -0.072266 0.023461 0.173978 -0.172303 0.196516 0.084682 -0.079865 0.356016 -0.204534 -0.317375 0.118846
Page -0.669090 0.292427 1.034339 0.331655 -0.826646 0.527628 -1.006887 -0.229903 -0.246521 -0.148541 0.610912 0.053366 0.442842 -0.465437 -0.803154 -0.070190
provide 0.301481 0.104049 0.483031 0.176332 -0.477173 -0.276720 0.242514 -0.199224 -0.259059 0.048272 0.640972 -0.031809 0.366639 -0.507943 -0.057598 0.050588
RCMP -0.405048 0.310111 0.046624 0.219887 -0.000735 0.252076 -0.217453 0.359377 -0.058938 -0.006176 0.461093 0.203688 -0.086552 0.624080 -0.212827 0.210447
he 0.367617 -0.393248 -0.035389 0.250038 -0.438742 -0.341841 0.268373 -0.149931 0.028685 0.137655 0.087559 -0.316117 0.372338 -0.573977 -0.263746 -0.055877
#LizardSquad 0.260163 -0.463847 -0.033675 0.132393 -0.243545 -0.023228 0.045714 0.099177 0.072431 0.204935 0.235596 -0.328736 0.372945 -0.074423 -0.143911 -0.143968
29 0.047148 0.056006 0.238719 0.309075 0.601800 -0.150440 0.119968 -0.030514 0.439924 0.424056 -0.192899 -0.187646 -0.143891 0.429210 0.546156 0.115604
source -0.044441 0.881818 0.322633 -0.000054 -0.619299 0.183650 0.136049 0.146464 0.145895 -0.073312 0.824986 -0.148693 0.320130 -0.740304 -0.554658 0.184155
David -0.070405 0.234984 -0.200604 -0.273311 0.209173 0.111170 0.012719 -0.062695 0.129423 0.150048 0.137189 -0.006483 0.041770 0.564063 0.334995 -0.075374
Walla -0.223742 0.192626 0.299284 0.776649 -0.509597 0.603643 -0.435142 0.007422 -0.260073 0.190920 0.076269 0.320451 0.541482 0.511963 -0.481304 0.047497
Media -0.167615 -0.094222 -0.267843 0.040541 0.195176 0.393155 -0.048183 -0.287452 0.037518 0.122937 0.382657 0.053758 0.265587 0.250599 -0.066851 0.149693
Research -0.118317 -0.005844 0.100584 0.058303 -0.048264 0.313645 0.064692 -0.184498 0.465011 0.181195 0.162261 -0.086494 0.139836 0.251165 -0.168122 0.103150
County 0.023972 0.103912 -0.121349 0.154391 -0.149184 -0.029853 -0.050225 0.151978 -0.224916 0.275427 0.099165 -0.154558 0.187743 0.194340 -0.122699 0.037838
email 0.590108 -0.384057 0.137823 0.244399 -0.527942 -0.072805 0.412992 0.101406 0.081729 0.070765 0.338491 -0.220102 0.267458 -0.403379 -0.079070 -0.225267
Watch -0.043492 0.757875 0.265569 -0.078145 -0.246203 0.108273 -0.198466 -0.056421 0.296314 0.065404 0.278529 -0.203409 0.645476 -0.120880 -0.494900 -0.128101
them 0.741605 -0.139314 0.075276 0.153431 -0.608817 -0.269838 0.582973 -0.003370 -0.292944 0.043866 0.326314 -0.343088 0.214229 -0.268669 -0.034371 0.180017
justice -0.373775 0.056529 -0.043743 0.204012 -0.098025 -0.360872 -0.017356 -0.089579 -0.181125 0.128956 0.008047 -0.002513 0.011708 -0.192534 -0.320662 0.063584
As 0.033605 0.148430 0.095547 0.138376 -0.232803 -0.289216 0.132885 0.070579 -0.399188 0.105433 0.136693 -0.237716 0.097369 -0.200815 0.112352 -0.058526
Derp -0.172268 0.505515 -0.499237 -0.569766 0.100803 0.317017 0.377860 0.011325 -0.386095 0.198523 0.447185 0.229056 -0.048573 0.701989 -0.100707 -0.112576
making 0.328452 -0.072735 0.243948 0.287975 -0.519972 -0.405764 -0.234366 0.010293 -0.336623 0.033365 0.347325 -0.488436 0.261783 -0.096182 -0.302715 0.042829
Services 0.003849 -0.216317 0.338065 0.107535 -0.178578 -0.068853 0.090560 -0.282714 0.056384 0.465409 0.194086 -0.420951 -0.205423 0.382009 -0.156110 -0.093813
big 0.432493 -0.202471 0.153810 0.106123 -0.255699 -0.318904 0.081808 0.135700 -0.352156 0.416977 0.304714 -0.134819 0.386367 -0.118380 -0.174162 0.160803
NatWest -0.013431 0.653274 0.050432 0.076174 0.112896 -0.221210 0.227565 0.029078 -0.014370 0.492493 0.518709 -0.108881 -0.224282 0.077952 0.040814 0.194242
there 0.354340 -0.281324 -0.160223 0.487095 -0.281361 -0.454633 0.200480 -0.136368 -0.212438 -0.157930 0.040861 -0.278713 0.462190 -0.438913 0.018777 -0.028265
